tree
version=v4
num_class=1
num_tree_per_iteration=1
label_index=0
max_feature_idx=71
objective=binary sigmoid:1
feature_names=Column_0 Column_1 Column_2 Column_3 Column_4 Column_5 Column_6 Column_7 Column_8 Column_9 Column_10 Column_11 Column_12 Column_13 Column_14 Column_15 Column_16 Column_17 Column_18 Column_19 Column_20 Column_21 Column_22 Column_23 Column_24 Column_25 Column_26 Column_27 Column_28 Column_29 Column_30 Column_31 Column_32 Column_33 Column_34 Column_35 Column_36 Column_37 Column_38 Column_39 Column_40 Column_41 Column_42 Column_43 Column_44 Column_45 Column_46 Column_47 Column_48 Column_49 Column_50 Column_51 Column_52 Column_53 Column_54 Column_55 Column_56 Column_57 Column_58 Column_59 Column_60 Column_61 Column_62 Column_63 Column_64 Column_65 Column_66 Column_67 Column_68 Column_69 Column_70 Column_71
feature_infos=[-4.4791374206542969:2.9458441734313965] [-5.0938601493835449:2.539841890335083] [-5.5648798942565918:2.6685047149658203] [-4.6632976531982422:2.5930793285369873] [-4.8193717002868652:1.8285056352615356] [-2.9148175716400146:2.5816571712493896] [-5.8581490516662598:1.8128581047058105] [-4.5891852378845215:1.7880303859710693] [-5.7458467483520508:1.6604907512664795] [-4.0291309356689453:3.4515378475189209] [-3.8476862907409668:4.4569334983825684] [-4.3376741409301758:3.4259147644042969] [-3.7350788116455078:3.6965892314910889] [-4.6142663955688477:2.2965214252471924] [-4.956291675567627:1.657801628112793] [-3.7412149906158447:3.1807971000671387] [-4.5885286331176758:2.1291916370391846] [-5.0732002258300781:2.5603787899017334] [-4.9818849563598633:2.1804935932159424] [-3.9503679275512695:3.58254075050354] [-5.0289306640625:2.05568528175354] [-5.0799770355224609:2.1446423530578613] [-5.3023681640625:1.7731075286865234] [-5.1968674659729004:1.698717474937439] [-3.7475457191467285:3.0081307888031006] [-5.2174263000488281:2.3700592517852783] [-5.3398771286010742:2.5999243259429932] [-4.7645635604858398:3.5331408977508545] [-4.8406200408935547:1.7372962236404419] [-5.0661873817443848:2.6737995147705078] [-3.8088481426239014:2.7728173732757568] [-5.2645182609558105:3.1214382648468018] [-3.0030941963195801:3.1293458938598633] [-2.6689443588256836:3.6294014453887939] [-4.2696743011474609:3.631868839263916] [-4.9573707580566406:2.4551651477813721] [-5.2718391418457031:2.9662973880767822] [-5.3110556602478027:2.4430878162384033] [-5.2219653129577637:1.8232283592224121] [-5.5139575004577637:3.3119270801544189] [-5.486149787902832:3.1950497627258301] [-5.2518134117126465:3.2557010650634766] [-5.0495219230651855:3.3068068027496338] [-4.2766242027282715:3.8201866149902344] [-5.3241658210754395:2.2226948738098145] [-5.3572278022766113:2.3139777183532715] [-4.7345142364501953:1.6641414165496826] [-5.1699457168579102:1.9450653791427612] [-4.4809017181396484:2.4119257926940918] [-5.0170974731445312:2.4230144023895264] [-3.0427389144897461:3.1655097007751465] [-3.8391742706298828:2.6986441612243652] [-5.3374872207641602:2.5398151874542236] [-3.2649006843566895:3.6176934242248535] [-4.1620841026306152:2.2047886848449707] [-5.309821605682373:1.9516118764877319] [-4.6524233818054199:2.1704213619232178] [-4.2654433250427246:2.9627764225006104] [-4.0992131233215332:3.2678234577178955] [-4.9192237854003906:3.420769214630127] [-4.3871550559997559:3.4124464988708496] [-5.6644454002380371:3.5197622776031494] [-5.0356245040893555:2.9842782020568848] [-4.2492051124572754:4.095667839050293] [-5.4884853363037109:3.8023998737335205] [-5.3885869979858398:2.6081664562225342] [-4.9780654907226562:4.1658363342285156] [-3.720538854598999:4.9944195747375488] [-4.4403514862060547:2.2822206020355225] [-4.0662322044372559:2.4923226833343506] [-5.102292537689209:2.7579374313354492] [-5.5343122482299805:2.3216040134429932]
tree_sizes=2875 3426 3415 3425 3429 3423 3425 3428 3417 3414 3430 3414 3432 3425 3429 3435 3423 3425 3433 3423 3430 3428 3412 3411 3434 3441 3420 3439 3419 3431 3438 3428 3425 3430 3424 3419 3433 3435 3427 3424 3436 3431 3424 3418 3431 3432 3439 3426 3439 3414 3413 3433 3417 3420 3419 3428 3414 3428 3408 3438 3433 3428 3415 3431 3430 3426 3433 3428 3430 3413 3416 3416 3428 3425 3428 3427 3430 3424 3424 3419 3433 3423 3438 3423 3421 3430 3433 3433 3427 3431 3427 3421 3427 3426 3437 3430 3434 3432 3440 3437 3428 3425 3434 3445 3435 3438 3437 3435 3434 3432 3439 3437 3427 3434 3420 3449 3426 3433 3421 3440 3421 3433 3425 3436 3424 3439 3431 3424 3437 3444 3445 3429 3437 3424 3435 3450 3433 3436 3436 3430 3430 3432 3433 3435 3431 3449 3437 3435 3431 3429 3449 3445 3432 3441 3446 3446 3442 3446 3448 3445 3441 3437 3438 3441 3449 3450 3447 3427 3431 3423 3448 3441 3452 3430 3436 3436 3451 3445 3432 3452 3442 3436 3454 3444 3428 3452 3465 3448 3455 3440 3453 3455 3455 3453 3448 3458 3446 3454 3453 3461 3450 3459 3459

Tree=0
num_leaves=26
num_cat=0
split_feature=14 4 38 29 5 33 54 53 5 6 37 0 56 47 54 32 2 26 62 14 23 62 43 13 0
split_gain=552.289 145.316 72.8016 46.7199 22.6605 19.1935 30.5103 15.8445 11.719 9.34069 7.49633 5.85639 5.08438 4.24275 4.07652 4.66533 5.68047 2.24942 2.08362 0.608895 0.527291 1.18175 0.185044 0.565875 5.68434e-14
threshold=0.26422938704490667 -0.18848229199647901 0.60855436325073253 0.49207173287868505 0.10220068693161012 -0.57393622398376454 -0.10164290666580199 0.65354847908020031 0.60102185606956493 0.11440730839967729 -0.34372575581073755 0.90591993927955639 -0.13637077063322064 0.56437301635742199 0.62341827154159557 -0.22747951745986936 0.13643749058246615 -0.34569203853607172 -0.46337763965129847 0.2257514297962189 0.2515282034873963 -0.1731089502573013 0.29646149277687078 0.63875779509544384 1.8891955614089968
decision_type=2 2 2 2 2 2 2 2 2 2 2 2 2 2 2 2 2 2 2 2 2 2 2 2 2
left_child=2 7 5 10 9 6 17 12 -4 -5 -3 -6 -2 19 15 18 -17 -1 -12 20 24 -22 -16 -24 -7
right_child=1 3 8 4 11 13 -8 -9 -10 -11 14 -13 -14 -15 22 16 -18 -19 -20 -21 21 -23 23 -25 -26
leaf_value=-0.12923264787481889 -0.12923264787481886 -0.077124987943405804 -0.060856080544005348 -0.087407101441577623 -0.11877626126650859 -0.12923264787481889 -0.079899952081765091 -0.08186204793717064 -0.097863488049887939 -0.055233604185238185 -0.063008866022186902 -0.089149832542962673 -0.10785514636449557 -0.11406617720871114 -0.049067017211106456 -0.052884428195092759 -0.081133269476591441 -0.1131995217420764 -0.049067017211106456 -0.12159782590684629 -0.11720780327526202 -0.12923264787481892 -0.049067017211106477 -0.057083580277477702 -0.12923264787481889
leaf_weight=11.725722908973696 10.977272510528568 4.9896693229675284 8.482437849044798 5.7381197214126614 5.7381197214126569 74.346072912216187 9.7298551797866804 5.4886362552642813 5.7381197214126578 9.7298551797866804 5.7381197214126614 4.9896693229675293 7.4845039844512948 9.2308882474899274 61.871899604797363 5.239152789115904 6.2370866537094116 4.989669322967532 16.9648756980896 5.2391527891159049 4.9896693229675302 9.4803717136383021 11.975206375122072 4.9896693229675284 6.2370866537094107
leaf_count=47 44 20 34 23 23 298 39 22 23 39 23 20 30 37 248 21 25 20 68 21 20 38 48 20 25
internal_value=-0.0909718 -0.0660755 -0.118846 -0.0584983 -0.0826602 -0.123349 -0.108057 -0.111696 -0.0757889 -0.0671689 -0.0531346 -0.104997 -0.120566 -0.127041 -0.0520754 -0.0578443 -0.0682371 -0.124447 -0.0525908 -0.128236 -0.128601 -0.125086 -0.0495744 -0.0514248 -0.129233
internal_weight=318.341 168.152 150.189 144.201 26.1958 135.968 26.4452 23.9504 14.2206 15.468 118.006 10.7278 18.4618 109.523 113.016 34.1792 11.4762 16.7154 22.703 100.292 95.0532 14.47 78.8368 16.9649 80.5832
internal_count=1276 674 602 578 105 545 106 96 57 62 473 43 74 439 453 137 46 67 91 402 381 58 316 68 323
is_linear=0
shrinkage=1


Tree=1
num_leaves=31
num_cat=0
split_feature=14 4 38 29 5 33 54 52 5 6 37 50 47 54 32 70 48 28 62 14 23 29 55 10 26 11 38 1 1 1
split_gain=530.653 139.378 70.0877 44.7391 21.7492 18.5184 29.3651 16.6892 11.2382 8.95008 7.17751 5.86713 4.098 3.90048 4.4661 4.22157 2.55377 2.23585 1.99436 0.588534 0.509756 1.1836 0.206974 0.536589 0.000174751 7.18259e-05 1.11689e-05 5.68434e-14 2.84217e-14 1.42109e-14
threshold=0.26422938704490667 -0.18848229199647901 0.60855436325073253 0.49207173287868505 0.10220068693161012 -0.57393622398376454 -0.10164290666580199 0.20107272267341617 0.60102185606956493 0.11440730839967729 -0.34372575581073755 -0.21361531317234037 0.56437301635742199 0.62341827154159557 -0.22747951745986936 0.58803242444992077 0.12833396345376971 -0.081316057592630372 -0.46337763965129847 0.2257514297962189 0.2515282034873963 0.68664151430130016 0.60743454098701488 -0.074964262545108781 -0.69942522048950184 0.76554745435714733 1.0367948412895205 1.5505115389823916 0.34569567441940313 -1.0000000180025095e-35
decision_type=2 2 2 2 2 2 2 2 2 2 2 2 2 2 2 2 2 2 2 2 2 2 2 2 2 2 2 2 2 2
left_child=2 7 5 10 9 6 17 16 -4 -5 -3 -6 19 14 18 -16 -2 24 -12 20 27 -22 23 -15 -1 26 28 -7 -24 -20
right_child=1 3 8 4 11 12 -8 -9 -10 -11 13 -13 -14 22 15 -17 -18 -19 29 -21 21 -23 25 -25 -26 -27 -28 -29 -30 -31
leaf_value=-0.037575389674048443 -0.0222550120207121 0.013561881920396326 0.029479316779910652 0.0034928233710081976 0.0021127981862101735 -0.037575389674048464 0.010845210644034176 0.0063541329342802003 -0.00675609318350711 0.034977209228160965 0.027373868996011522 -0.027551822445616679 -0.022659558788712574 0.041005816024956461 0.010134466652790599 0.034384440788269424 -0.037752838864862685 -0.02164340469871379 0.041005816024956447 -0.030062843943356534 -0.025602789549203836 -0.037648162619753844 0.041005816024956461 0.033042835239560857 -0.03773169067994369 0.041080198287715766 0.041035214464974781 -0.037575389674048464 0.041005816024956461 0.041005816024956461
leaf_weight=6.7218951433897045 7.7230671942234101 4.9925720691680899 8.4921349287033063 5.739031374454501 4.9858589023351669 73.442928418517113 9.7344555258750898 6.7343782633543006 5.7362546026706687 9.7425677329301816 5.7442966848611858 5.7339870780706388 9.2199771702289564 10.493682682514189 5.7424378842115384 5.7436190992593765 9.4657807499170286 4.9813572615385082 11.992780208587648 5.230640932917594 4.9804715663194647 9.4628406912088376 46.47202330827713 4.9967260658740988 4.9818407446146002 6.2456551790237418 5.746327966451644 6.9708542227745047 4.9969917535781851 4.9969917535781851
leaf_count=27 31 20 34 23 20 295 39 27 23 39 23 23 37 42 23 23 38 20 48 21 20 38 186 20 20 25 23 28 20 20
internal_value=-5.48082e-07 0.024378 -0.0273596 0.0317873 0.00814327 -0.0317866 -0.01676 -0.0203336 0.0148708 0.0233059 0.0370301 -0.0137546 -0.0354185 0.0380654 0.0324257 0.0222607 -0.0307896 -0.0328655 0.0375614 -0.0365939 -0.036954 -0.0334946 0.0405099 0.0384372 -0.0376419 0.0410158 0.0410088 -0.0375754 0.0410058 0.0410058
internal_weight=318.244 168.289 149.956 144.366 26.2014 135.727 26.4195 23.9232 14.2284 15.4816 118.164 10.7198 109.308 113.172 34.2201 11.4861 17.1888 16.6851 22.7341 100.088 94.8571 14.4433 78.9514 15.4904 11.7037 63.461 57.2153 80.4138 51.469 16.9898
internal_count=1276 674 602 578 105 545 106 96 57 62 473 43 439 453 137 46 69 67 91 402 381 58 316 62 47 254 229 323 206 68
is_linear=0
shrinkage=0.02


Tree=2
num_leaves=31
num_cat=0
split_feature=38 53 5 4 4 46 38 1 3 0 8 47 1 27 7 5 54 43 50 47 54 57 35 11 23 4 35 44 4 56
split_gain=457.957 103.403 72.5698 56.5318 39.5561 20.2524 17.051 13.4501 12.8183 11.9515 9.37035 9.01094 19.7325 5.64862 4.90112 4.03279 4.01939 2.99371 1.30198 1.07064 0.944324 1.83358 0.589221 0.506064 0.492062 0.371574 1.31776 0.158031 0.00312542 0.0026348
threshold=0.33387848734855657 0.064489886164665236 -0.29300405085086817 -0.66761136054992665 0.41309757530689245 -0.25108689069747919 -0.62696143984794606 0.53849449753761303 0.77566927671432506 -0.15229009836912152 -0.27393615245819086 0.27485878765583044 0.029035762883722786 0.81338110566139232 0.52117443084716808 0.26851567625999456 0.061111474409699447 -1.4720159769058225 -0.94394460320472706 0.2967487126588822 0.46364533901214605 0.59672313928604137 0.93065965175628673 0.84705060720443737 0.45600204169750219 0.47648543119430548 0.35449753701686865 0.53867781162261974 0.16738544404506686 0.16606056690216067
decision_type=2 2 2 2 2 2 2 2 2 2 2 2 2 2 2 2 2 2 2 2 2 2 2 2 2 2 2 2 2 2
left_child=2 4 3 -1 7 -3 -5 9 16 -2 -7 17 -13 19 27 18 -6 -4 -12 -8 24 -22 25 -9 -19 26 28 -14 -20 -27
right_child=1 5 11 6 8 10 13 23 -10 -11 15 12 14 -15 -16 -17 -18 20 22 -21 21 -23 -24 -25 -26 29 -28 -29 -30 -31
leaf_value=-0.037123389048606958 -0.027384358621598395 0.00034865620442885056 -0.023380798259749418 -0.013870609332284917 0.016475565145300151 0.0093652083249423108 0.040965742676106566 -0.03764537734494186 -0.006039129901952137 0.0097988852623319828 0.028684559694378144 0.0097370144057504805 -0.033000745290821233 0.012452374083822632 -0.013317289468983364 0.024021490522041129 0.036376420712539839 -0.037026392641434216 0.040910204229476305 0.028842285691269516 -0.021211521465333168 -0.037365303745722972 0.032678264647042113 -0.029160362418396653 -0.031349728229721305 0.040616767551134907 0.0283220732064451 -0.037272995417527148 0.040259407692533396 0.040218617735508187
leaf_weight=10.435899361968039 5.7271664291620246 6.7297139167785636 8.6977918148040754 4.9813955128192928 7.2378236502409043 4.9908657371997824 6.9941018670797366 6.4722391813993436 6.2297406047582617 8.7257887721061724 4.9977183043956748 6.2325067222118404 4.9676280766725602 6.2410095483064643 4.9750584363937369 8.2408173233270627 9.2446771562099439 67.804273694753647 5.2460160255432147 4.9943886697292328 4.9721473604440671 6.4655358791351318 5.2495217174291602 4.9712190926074982 6.7126051783561698 7.4967752844095221 4.9993847012519828 11.436527684330938 6.7493434250354767 58.747172147035599
leaf_count=42 23 27 35 20 29 20 28 26 25 35 20 25 20 25 20 33 37 273 21 20 20 26 21 20 27 30 20 46 27 235
internal_value=-1.04544e-06 0.0235417 -0.0244717 0.00153871 -0.00086468 0.0339991 0.0189217 -0.0177609 0.0184004 -0.00493545 0.0361211 -0.0316297 -0.021577 0.0278825 -0.0307057 0.0374338 0.0276375 -0.0345623 0.0386161 0.0359151 -0.0356937 -0.030343 0.039177 -0.0339594 -0.036515 0.0395869 0.0369487 -0.0359792 0.040544 0.0402637
internal_weight=317.967 162.056 155.911 33.6468 48.6087 113.447 23.2109 25.8964 22.7122 14.453 106.718 122.264 27.6117 18.2295 21.3792 101.727 16.4825 94.6524 93.4859 11.9885 85.9546 11.4377 88.4882 11.4435 74.5169 83.2387 16.9947 16.4042 11.9954 66.2439
internal_count=1276 649 627 135 195 454 93 104 91 58 427 492 111 73 86 407 66 381 374 48 346 46 354 46 300 333 68 66 48 265
is_linear=0
shrinkage=0.02


Tree=3
num_leaves=31
num_cat=0
split_feature=14 4 38 29 5 33 54 52 5 54 0 32 19 48 54 28 30 26 4 4 23 49 54 2 38 32 38 5 45 32
split_gain=492.621 129.246 65.6989 41.1553 20.0938 17.4229 27.8141 15.4855 10.4401 6.99136 5.62159 4.86366 3.59852 3.07002 2.83327 8.50824 2.16891 2.09747 1.22221 2.20837 0.877814 2.06397 0.23471 0.755888 0.00466843 0.00147842 0.00106653 0.000705445 0.000477172 0.000431651
threshold=0.26422938704490667 -0.18848229199647901 0.60855436325073253 0.49207173287868505 0.10220068693161012 -0.57393622398376454 -0.10164290666580199 0.26615442335605627 0.60102185606956493 0.54838794469833385 0.90591993927955639 0.68559905886650097 0.91394925117492687 0.12833396345376971 0.45069549977779394 0.23673507571220401 -0.79086148738861073 0.25957787036895758 0.33751291036605841 0.15685390681028369 0.36929668486118322 0.52502417564392101 0.61423414945602428 0.64348489046096813 0.33387848734855657 -0.35876370966434473 0.18215520679950717 0.053862607106566436 0.72198966145515453 -0.22251198440790174
decision_type=2 2 2 2 2 2 2 2 2 2 2 2 2 2 2 2 2 2 2 2 2 2 2 2 2 2 2 2 2 2
left_child=2 7 5 11 9 6 16 13 -4 -5 -6 12 17 -2 20 -16 26 18 19 -3 24 -22 23 25 28 -20 -1 29 -7 -24
right_child=1 3 8 4 10 14 -8 -9 -10 -11 -12 -13 -14 -15 15 -17 -18 -19 22 -21 21 -23 27 -25 -26 -27 -28 -29 -30 -31
leaf_value=-0.036444481915563536 -0.019994761038394669 0.039912804559190697 0.028496990403796055 0.010263973954096246 -0.026712007875631029 -0.036352474970088193 0.010682150252843225 0.0081622561572516055 -0.006433258426309465 0.03726116293666145 0.0023524176386142555 0.01630365360705997 0.019873458980146207 -0.036634312928919714 -0.036485201244776312 -0.0047859113083172904 -0.020821937650178861 0.027203013061939011 0.039586144760270753 0.02337449437813335 -0.020627565627339903 -0.036718818932306989 0.039404883308232636 0.031911164458252823 -0.03686037514587745 0.040011058536039312 -0.036831503637635293 0.039682416904505795 -0.036533060734378307 0.039529313140015045
leaf_weight=6.6854608356952685 8.1956702768802696 6.9981084018945676 8.4990916997194272 8.4932699054479617 5.7166832089424116 64.097170367836952 9.7356547117233259 5.9892258048057547 5.7302688509225836 6.9986601322889319 4.9815285205841064 4.9978033453226081 4.9985656589269629 9.6664386838674528 10.649821281433104 4.9662768095731726 4.9643684774637249 7.7467907518148413 9.4985269159078598 5.9973732680082321 4.9600348323583594 8.927184045314787 45.739292427897446 7.498781517148017 8.6849966347217542 4.9992063939571389 4.9621233195066452 4.9995362460613242 6.4409996867179862 14.747336521744733
leaf_count=27 33 28 34 34 23 259 39 24 23 28 20 20 20 39 43 20 20 31 38 24 20 36 183 30 35 20 20 20 26 59
internal_value=-1.49596e-06 0.023463 -0.0264456 0.0305866 0.0079025 -0.0307517 -0.0161601 -0.019668 0.0144303 0.0224603 -0.0131784 0.0356119 0.0364642 -0.0289996 -0.0342876 -0.0264041 -0.0318914 0.0372304 0.0380035 0.0322804 -0.0356098 -0.0309716 0.0388537 0.0370663 -0.0364228 0.0397327 -0.0366094 0.0394541 -0.036369 0.0394352
internal_weight=317.566 168.263 149.303 144.411 26.1901 135.074 26.3476 23.8513 14.2294 15.4919 10.6982 118.221 113.224 17.8621 108.726 15.6161 16.612 108.225 100.478 12.9955 93.1104 13.8872 87.4827 21.9965 79.2232 14.4977 11.6476 65.4862 70.5382 60.4866
internal_count=1276 674 602 578 105 545 106 96 57 62 43 473 453 72 439 63 67 433 402 52 376 56 350 88 320 58 47 262 285 242
is_linear=0
shrinkage=0.02


Tree=4
num_leaves=31
num_cat=0
split_feature=14 4 38 29 5 33 54 52 5 6 37 50 47 54 32 70 48 26 62 14 23 63 55 35 38 38 27 5 0 54
split_gain=474.067 124.197 63.3604 39.5647 19.3017 16.8716 26.8106 14.9488 10.0261 8.44754 6.59634 5.62687 3.80066 3.52919 4.15583 3.95532 2.37644 2.13591 1.92349 0.53926 0.48352 1.1718 0.204496 0.535016 0.002447 0.00190931 0.00189568 0.00132318 0.000830472 0.000519946
threshold=0.26422938704490667 -0.18848229199647901 0.60855436325073253 0.49207173287868505 0.10220068693161012 -0.57393622398376454 -0.10164290666580199 0.20107272267341617 0.60102185606956493 0.11440730839967729 -0.34372575581073755 -0.21361531317234037 0.56437301635742199 0.62341827154159557 -0.22747951745986936 0.58803242444992077 0.12833396345376971 -0.34569203853607172 -0.46337763965129847 0.2257514297962189 0.2515282034873963 -0.023537334986031052 0.60743454098701488 0.4277255386114121 0.33387848734855657 0.30750431120395666 0.36405993998050695 -0.28427697718143458 0.27785262465476995 0.5543833076953889
decision_type=2 2 2 2 2 2 2 2 2 2 2 2 2 2 2 2 2 2 2 2 2 2 2 2 2 2 2 2 2 2
left_child=2 7 5 10 9 6 17 16 -4 -5 -3 -6 19 14 18 -16 -2 25 -12 20 24 -22 23 -15 29 -1 28 -20 -24 -7
right_child=1 3 8 4 11 12 -8 -9 -10 -11 13 -13 -14 22 15 -17 -18 -19 27 -21 21 -23 26 -25 -26 -27 -28 -29 -30 -31
leaf_value=-0.035824593295108412 -0.021024695711137947 0.012438590452067187 0.027927559821593728 0.0027750598345508215 0.0026164265499885159 -0.035763437080068398 0.010464755079140809 0.0059113434904644628 -0.0063069979340524005 0.033350052392082968 0.025508451420309296 -0.026477579434378302 -0.021407355429115139 0.038747665349702677 0.00902226503926532 0.032485097173537029 -0.036025694213929003 -0.020357914871204828 0.038749911247201146 -0.028591450315986835 -0.023944719477486737 -0.03597960222843738 0.038675586132809046 0.030794839238157616 -0.036142375067876618 -0.036343283101869982 0.039023849078401722 0.039110675510382296 0.038924979135528934 -0.035943171805835381
leaf_weight=6.6580478250980395 7.6830944269895616 4.9982620030641547 8.4989324659109098 5.7452084273099926 4.9763277173042297 64.086749151349068 9.7391094416379911 6.7373397201299658 5.7281054854392996 9.7466329634189588 5.7480975687503841 5.7100839316844922 9.1713753789663297 10.488837406039236 5.7481357157230359 5.7477001696825027 9.3831252008676511 4.9529052078723934 10.239083468914034 5.1944830119609824 4.9404688775539407 9.3809755593538249 48.942031055688858 4.9949934780597678 8.4019144475460035 4.9485730975866318 8.4942275285720807 6.7457858920097342 5.9951644390821448 7.1570304334163657
leaf_count=27 31 20 34 23 20 260 39 27 23 39 23 23 37 42 23 23 38 20 41 21 20 38 196 20 34 20 34 27 24 29
internal_value=-1.93594e-06 0.0230127 -0.0259952 0.0299939 0.00774784 -0.0302368 -0.0158671 -0.019314 0.014144 0.0220112 0.0349232 -0.0129294 -0.0337252 0.0359165 0.0305531 0.0207532 -0.0292723 -0.0313536 0.0355088 -0.0348644 -0.0352112 -0.0318279 0.0382428 0.0361821 -0.0358196 -0.0360457 0.0387458 0.0388932 0.0387028 -0.0357815
internal_weight=316.983 168.124 148.859 144.321 26.1783 134.632 26.2986 23.8036 14.227 15.4918 118.142 10.6864 108.333 113.144 34.2288 11.4958 17.0662 16.5595 22.733 99.1616 93.9671 14.3214 78.9153 15.4838 79.6457 11.6066 63.4314 16.9849 54.9372 71.2438
internal_count=1276 674 602 578 105 545 106 96 57 62 473 43 439 453 137 46 69 67 91 402 381 58 316 62 323 47 254 68 220 289
is_linear=0
shrinkage=0.02


Tree=5
num_leaves=31
num_cat=0
split_feature=14 4 38 33 5 33 54 52 37 5 53 47 48 16 30 5 35 14 13 7 62 64 41 62 54 33 26 46 14 55
split_gain=456.444 119.421 61.1381 35.7065 19.4237 16.3545 25.8566 14.4426 13.1413 9.63312 6.32953 3.70061 2.89703 2.42013 2.08025 2.06312 1.18243 1.02349 2.87205 0.534962 1.06357 0.196644 0.571466 0.192369 0.0160378 0.00909734 0.00349072 0.00330364 0.00222646 0.00186598
threshold=0.26422938704490667 -0.18848229199647901 0.60855436325073253 0.37906071543693548 0.20514567196369174 -0.57393622398376454 -0.10164290666580199 0.26615442335605627 -0.090783227235078798 0.60102185606956493 -0.38199971616268152 0.56437301635742199 0.12833396345376971 0.45912079513072973 -0.79086148738861073 0.49711126089096075 0.86981326341629039 0.53419262170791637 0.28726918995380407 -1.5367758870124815 -0.24389266222715375 -0.7021580934524535 0.096764065325260176 1.339880704879761 0.62341827154159557 -0.43637269735336298 0.1018090918660164 0.48946513235569006 0.17265798896551135 0.44219285249710089
decision_type=2 2 2 2 2 2 2 2 2 2 2 2 2 2 2 2 2 2 2 2 2 2 2 2 2 2 2 2 2 2
left_child=2 7 5 10 8 6 14 12 -5 -4 -3 19 -2 -10 -1 16 17 18 29 20 -7 22 -21 24 25 27 -26 -19 -23 -12
right_child=1 3 9 4 -6 11 -8 -9 13 -11 15 -13 -14 -15 -16 -17 -18 23 -20 21 -22 28 -24 -25 26 -27 -28 -29 -30 -31
leaf_value=-0.035482621029597837 -0.019277480898498817 0.018760251654287786 0.027380389556592197 -0.0050005891290535063 -0.014938856734780279 -0.023208976426600289 0.010252431519105019 0.0078770023914131529 0.019620362852738524 -0.0061832949143963371 0.038553423580929308 -0.021022912519169063 -0.035486353745549065 0.036902580869167659 -0.019978984043945065 0.023270250032774876 0.027415068356809975 0.038767954357880885 0.020991256018921229 -0.035382294805861574 -0.035304482826241823 -0.035281623166982079 -0.027184061724150062 0.034144459818509318 0.037993554181058244 0.039465840873005961 0.03853557472788055 0.038088689944740184 -0.035666111436553745 0.038043142069455298
leaf_weight=11.557651057839395 8.1663822978735023 9.4787415862083417 8.4954299628734571 5.7458077520132109 8.9420799762010557 4.9146860092878342 9.7419566959142667 5.992048352956771 4.9941112250089654 5.7258707880973807 4.9921215921640414 9.1524978876113874 9.5906255394220334 9.2339509576559049 4.9421815276145962 4.9921923726797095 5.4880337715148917 5.9928982555866259 5.7373377978801718 11.056897386908529 7.1214319318532926 64.079504489898682 4.91188821196556 4.9879037439823142 51.105779200792313 4.995116412639617 5.2400492280721656 5.485566258430481 6.649470403790473 6.731969878077507
leaf_count=47 33 38 34 23 36 20 39 24 20 23 20 37 39 37 20 20 22 24 23 45 29 261 20 20 205 20 21 22 27 27
internal_value=-2.32395e-06 0.0225837 -0.0255638 0.0294304 0.00955964 -0.0297446 -0.0155842 -0.0189719 0.0205273 0.0138668 0.0344169 -0.0331889 -0.028032 0.0308364 -0.0308388 0.0358203 0.0364421 0.0369621 0.0325863 -0.0343167 -0.0303655 -0.0348652 -0.0328606 0.0379442 0.0382044 0.0387534 0.038044 0.0384433 -0.0353178 0.0382604
internal_weight=316.242 167.893 148.349 144.144 28.9159 134.128 26.2418 23.7491 19.9739 14.2213 115.228 107.886 17.757 14.2281 16.4998 105.749 100.757 95.2687 17.4614 98.7339 12.0361 86.6978 15.9688 77.8073 72.8194 16.4736 56.3458 11.4785 70.729 11.7241
internal_count=1276 674 602 578 116 545 106 96 80 57 462 439 72 57 67 424 404 382 70 402 49 353 65 312 292 66 226 46 288 47
is_linear=0
shrinkage=0.02


Tree=6
num_leaves=31
num_cat=0
split_feature=14 4 38 29 14 33 55 52 55 33 37 3 4 47 55 32 14 48 39 19 14 23 69 5 53 38 32 53 65 47
split_gain=439.657 114.877 59.0242 36.7848 18.4798 15.8684 18.1109 13.9574 9.27597 8.98681 6.28571 5.24436 4.22052 3.60971 3.30485 5.39293 5.81902 2.24185 1.16497 0.575882 0.531729 0.477472 1.17448 0.00445702 0.00231773 0.00207076 0.00197905 0.0011566 0.000528592 0.000338932
threshold=0.26422938704490667 -0.18848229199647901 0.60855436325073253 0.49207173287868505 0.55082702636718761 -0.57393622398376454 0.14270944893360141 0.20107272267341617 0.15096475929021838 1.2113867998123171 -0.34372575581073755 -0.20550597459077832 -0.41616998612880701 0.56437301635742199 0.60743454098701488 -0.22747951745986936 0.65913459658622753 0.12833396345376971 0.28058749437332159 -0.40594901144504542 0.2257514297962189 0.2515282034873963 0.49911072850227362 0.26105590164661413 0.32365775108337408 0.33387848734855657 -0.19155234098434445 0.83423873782157909 -0.36561143398284907 0.2967487126588822
decision_type=2 2 2 2 2 2 2 2 2 2 2 2 2 2 2 2 2 2 2 2 2 2 2 2 2 2 2 2 2 2
left_child=2 7 5 10 -5 6 12 17 -4 11 -3 -6 -1 20 15 18 -17 -2 19 -12 21 25 -23 26 28 29 -16 -28 -21 -7
right_child=1 3 8 4 9 13 -8 -9 -10 -11 14 -13 -14 -15 23 16 -18 -19 -20 24 -22 22 -24 -25 -26 -27 27 -29 -30 -31
leaf_value=-0.035296669603760961 -0.020303347320444733 0.011703757569400501 -0.0067825817207433818 -0.02193947991364804 0.034793263779956174 -0.034699132985587619 0.010393783896938447 0.0057064385246423464 0.026407666313524911 -0.0061749125651474014 0.030401122491720178 0.010482149419427409 -0.016152287478995817 -0.020649202160679617 0.037309093111752553 0.0044412638323292663 0.032086890253485718 -0.034919913255880897 0.02572684556490842 0.037982131999263528 -0.027542958987191325 -0.022841444805552235 -0.034940171902172391 0.03798037397020225 0.037422734202196224 -0.035046943770979964 0.037784212112587943 0.037449823145907155 0.037708153215749926 -0.034847222357292609
leaf_weight=9.5647128820419347 7.6516485661268296 4.9971837252378455 5.4851733893156043 6.4545026272535351 8.7345815747976321 63.726140350103378 7.7275488674640647 6.7386702001094809 8.7271828204393369 4.9772578328847876 5.4778054952621451 5.9787854403257361 8.8851420879364014 9.131982818245886 42.526954829692841 5.743849113583563 6.4827493578195572 9.2976150661706907 4.981023207306861 4.9852521568536758 5.1560906916856757 4.9005601257085791 9.3002042770385724 5.4835430681705466 11.196120113134382 8.3289752304553968 5.978377744555476 13.43690066039562 6.4754812568426185 6.8460587859153739
leaf_count=39 31 20 22 26 35 261 31 27 35 20 22 24 36 37 171 23 26 38 20 20 21 20 38 22 45 34 24 54 26 28
internal_value=-2.69559e-06 0.0221713 -0.0251504 0.0288891 0.00742902 -0.0292735 -0.0153109 -0.0186412 0.0135981 0.0170559 0.0336535 0.0249144 -0.0260771 -0.032677 0.0346262 0.030451 0.0190994 -0.0283213 0.0346421 0.0362204 -0.0337948 -0.0341411 -0.030765 0.0374339 0.0376274 -0.0347487 0.0373855 0.0375528 0.0378273 -0.0347135
internal_weight=315.378 167.598 147.78 143.91 26.1451 133.567 26.1774 23.6879 14.2124 19.6906 117.765 14.7134 18.4499 107.39 112.768 45.3423 12.2266 16.9493 33.1157 28.1347 98.258 93.1019 14.2008 67.4258 22.6569 78.9012 61.9422 19.4153 11.4607 70.5722
internal_count=1276 674 602 578 105 545 106 96 57 79 473 59 75 439 453 182 49 69 133 113 402 381 58 271 91 323 249 78 46 289
is_linear=0
shrinkage=0.02


Tree=7
num_leaves=31
num_cat=0
split_feature=14 4 38 29 14 33 54 52 5 33 37 1 47 54 29 27 45 64 48 47 45 55 8 31 5 38 14 46 38 33
split_gain=423.65 110.591 57.0169 36.1607 19.1269 15.4281 24.4212 14.1686 9.26596 8.86189 6.08219 5.29634 3.5273 3.29581 3.53665 2.04042 1.91268 3.73877 1.53342 0.531278 2.39645 0.188391 0.518443 0.166747 0.00272141 0.00161607 0.00153556 0.00150572 0.00149585 0.00121613
threshold=0.26422938704490667 -0.20349660515785215 0.60855436325073253 0.49207173287868505 0.55082702636718761 -0.57393622398376454 -0.10164290666580199 0.20107272267341617 0.60102185606956493 1.2113867998123171 -0.34372575581073755 -0.81044062972068776 0.56437301635742199 0.62341827154159557 -0.13881525397300717 -0.64758530259132374 0.47092543542385107 -0.071845002472400651 0.12833396345376971 -0.021901424974203106 0.13129899650812152 0.60743454098701488 0.52460366487503063 0.64913290739059459 0.18619681149721148 0.18215520679950717 0.060822259634733207 0.50963681936264049 0.30750431120395666 0.17098080366849902
decision_type=2 2 2 2 2 2 2 2 2 2 2 2 2 2 2 2 2 2 2 2 2 2 2 2 2 2 2 2 2 2
left_child=2 7 5 10 -5 6 15 18 -4 11 -3 -6 19 14 16 25 27 -18 -2 28 -21 22 -15 26 29 -1 -22 -12 -7 -23
right_child=1 3 8 4 9 12 -8 -9 -10 -11 13 -13 -14 21 -16 -17 17 -19 -20 20 23 24 -24 -25 -26 -27 -28 -29 -30 -31
leaf_value=-0.034378168263107446 -0.022102783413102005 0.011471103756243774 0.026598089718288018 -0.022020741739969957 0.035897248409547153 -0.034234764630092077 0.010030917562987652 0.005591347889446101 -0.0063264859150601342 -0.0060532142259330374 0.037448179435931629 0.012039169241371023 -0.020285667771462439 0.036829777448165471 0.017846984873599887 -0.019179162150832627 0.013497378069063931 0.037209632687944909 -0.034397951088009533 -0.018245641234092797 -0.034328655708944472 0.036693770957990222 0.028977998506689709 -0.030292359293474638 0.037213029954616714 -0.034858389572037435 -0.034738353462357152 0.037024876625066504 -0.034598199410313703 0.036989983276899209
leaf_weight=6.568815156817438 7.3860437273979249 4.9965702444314948 8.4829956591129285 6.6881160885095623 7.9729877561330831 63.640136405825615 9.7431731373071653 6.7398172467946997 5.7276097536087027 4.9757928550243369 9.4539707303047198 6.9804812520742399 9.1099431961774808 10.421924158930777 8.7255162149667722 4.9151276051998165 4.9749450832605362 5.7153919488191587 9.003352686762808 4.8784249424934414 14.589525043964391 51.82455712556839 4.9668531864881507 4.8661231547594062 4.9713571220636359 4.8896069675683975 4.8844064325094214 5.2155964374542227 4.8771367818117133 6.2083193659782401
leaf_count=27 30 20 34 27 32 262 39 27 23 20 38 28 37 42 35 20 20 23 37 20 60 209 20 20 20 20 20 21 20 25
internal_value=-3.02484e-06 0.0217773 -0.0247504 0.0282936 0.00724529 -0.02882 -0.0150403 -0.0188188 0.0133278 0.0170668 0.0330628 0.02476 -0.0321883 0.0340219 0.02883 -0.029959 0.0326088 0.0261747 -0.028857 -0.0332977 -0.0310396 0.0362794 0.0342956 -0.0336039 0.0367639 -0.0345831 -0.0344314 0.0372977 -0.0342606 0.0367255
internal_weight=314.395 167.222 147.173 144.092 26.6174 132.962 26.1167 23.1292 14.2106 19.9293 117.475 14.9535 106.846 112.478 34.0854 16.3735 25.3599 10.6903 16.3894 97.7358 29.2185 78.393 15.3888 24.3401 63.0042 11.4584 19.4739 14.6696 68.5173 58.0329
internal_count=1276 674 602 580 107 545 106 94 57 80 473 60 439 453 137 67 102 43 67 402 120 316 62 100 254 47 80 59 282 234
is_linear=0
shrinkage=0.02


Tree=8
num_leaves=31
num_cat=0
split_feature=14 4 33 54 29 14 52 14 28 33 37 3 54 28 54 32 2 62 43 48 23 21 7 37 56 47 4 47 14 5
split_gain=408.426 106.496 49.5464 43.3305 34.926 18.3927 13.6946 11.1614 8.73342 8.52098 5.89377 5.132 4.53586 9.98767 3.21224 3.83104 5.18988 1.89799 1.87598 1.50062 1.02935 3.0988 0.565203 0.161041 0.153204 0.123545 0.108655 0.0196385 0.00217991 0.00213714
threshold=0.26422938704490667 -0.20349660515785215 -0.57393622398376454 -0.027744438499212262 0.49207173287868505 0.55082702636718761 0.20107272267341617 -0.64115324616432179 0.11553840339183809 1.2113867998123171 -0.34372575581073755 -0.20550597459077832 0.45069549977779394 0.26805657148361212 0.62341827154159557 -0.22747951745986936 0.13643749058246615 -0.46337763965129847 -0.21955208480358121 0.12833396345376971 0.36929668486118322 0.74409028887748729 -0.15418992191553113 1.0317314863204958 0.61730334162712108 -1.2067015171051023 0.33751291036605841 0.51982671022415172 0.060822259634733207 0.15216723084449771
decision_type=2 2 2 2 2 2 2 2 2 2 2 2 2 2 2 2 2 2 2 2 2 2 2 2 2 2 2 2 2 2
left_child=2 6 3 8 10 -6 19 -5 22 11 -3 -7 20 25 15 17 -17 -12 -9 -2 24 -22 -1 26 27 -14 -16 28 -4 -28
right_child=1 4 12 7 5 9 -8 18 -10 -11 14 -13 13 -15 23 16 -18 -19 -20 -21 21 -23 -24 -25 -26 -27 29 -29 -30 -31
leaf_value=-0.03492819294789961 -0.021722657648835544 0.011243800871463809 -0.033769433337861664 -0.0030029274396671654 -0.021623253532810503 0.033860982783801057 0.005478685009875273 0.039849072637721 -0.0032172150873440697 -0.0059339892355443017 0.023139796483615839 0.0099345190460155015 -0.029842760549867547 0.00087864935048048362 0.033578531631540509 0.033608923625509983 0.0065826709370743197 0.036479958678296981 0.023080928256317561 -0.033911213703334941 -0.014921104796968277 -0.034522155775954182 -0.026548829432862967 0.032186632636133396 -0.030225795837824389 -0.034092600832099709 0.03613738293879705 -0.035122506929489442 -0.034107531337301919 0.036569257858616179
leaf_weight=9.4943945407867432 7.365195766091353 4.9956375062465659 60.607696056365967 5.4907138645648983 6.6749700158834484 8.9620499312877673 6.7408350855112067 5.7435981035232553 5.9182115793228141 4.9742660373449317 5.7136176079511669 5.9775064438581458 4.8367562443017968 5.4091195762157431 7.1764393150806418 5.2217115759849531 6.2367770671844482 16.83908948302269 4.9852561801671955 8.9504571408033353 4.8890887200832358 9.4856743514537794 4.8722646683454522 4.9454440623521796 4.8395296931266776 6.3001829832792291 61.042073100805283 4.8968758881092063 8.7263166159391385 4.9553440660238257
leaf_count=39 30 20 251 22 27 36 27 23 24 20 23 24 20 22 29 21 25 68 20 37 20 39 20 20 20 26 247 20 36 20
internal_value=-3.33857e-06 0.0214 -0.024369 -0.00417927 0.0278014 0.00710809 -0.0185016 0.0201888 -0.0236637 0.0167386 0.032499 0.0242877 -0.0310696 -0.0214177 0.033446 0.0283157 0.0188987 0.0331003 0.0320576 -0.0284091 -0.0327786 -0.0278555 -0.0320864 0.0356796 -0.0336737 -0.0322469 0.0359157 -0.0338984 -0.033812 0.0361698
internal_weight=313.267 166.771 146.496 36.5044 143.715 26.5888 23.0565 16.2196 20.2849 19.9138 117.126 14.9396 109.991 16.5461 112.13 34.0112 11.4585 22.5527 10.7289 16.3157 93.4452 14.3748 14.3667 78.1193 79.0704 11.1369 73.1739 74.2309 69.334 65.9974
internal_count=1276 674 602 148 580 107 94 65 83 80 473 60 454 68 453 137 46 91 43 67 386 59 59 316 327 46 296 307 287 267
is_linear=0
shrinkage=0.02


Tree=9
num_leaves=31
num_cat=0
split_feature=14 4 38 29 14 33 8 53 13 53 5 37 47 53 55 32 14 56 63 39 19 36 7 28 64 41 48 5 4 53
split_gain=393.883 102.689 53.9734 36.4865 18.617 14.4452 17.7431 15.8778 13.6307 12.3565 8.76254 5.14225 3.42245 3.33553 3.11429 5.06459 5.49915 2.99747 2.95831 1.12662 0.565357 0.556998 0.522115 1.05179 0.19488 0.558556 0.0160318 0.00342494 0.00339416 0.00305815
threshold=0.26422938704490667 -0.25522050261497492 0.60855436325073253 0.49207173287868505 0.76500973105430614 -0.57393622398376454 -0.11855169758200644 -0.5582558512687682 0.30523636937141424 0.65354847908020031 0.60102185606956493 -0.34372575581073755 0.56437301635742199 0.28538458049297338 0.60743454098701488 -0.22747951745986936 0.65913459658622753 -0.13637077063322064 0.98009979724884044 0.28058749437332159 -0.40594901144504542 -0.18287285417318341 -1.5367758870124815 0.15103124827146533 -0.7021580934524535 0.096764065325260176 0.19300785660743716 0.26105590164661413 0.31693911552429205 0.32365775108337408
decision_type=2 2 2 2 2 2 2 2 2 2 2 2 2 2 2 2 2 2 2 2 2 2 2 2 2 2 2 2 2 2
left_child=2 9 5 11 8 6 21 -8 -5 17 -4 -3 22 -10 15 19 -17 26 -6 20 -13 -1 23 -7 25 -24 -2 28 -16 -22
right_child=1 3 10 4 18 12 7 -9 13 -11 -12 14 -14 -15 27 16 -18 -19 -20 -21 29 -23 24 -25 -26 -27 -28 -29 -30 -31
leaf_value=-0.026289409546843424 -0.035012238628211304 0.012644235731705285 0.025986101356130983 0.01698586856066674 0.03750289700470924 -0.033407670897767347 -0.027232105731872069 0.01806250054709671 -0.032844844958165267 0.0076790849734284152 -0.0060578416771049073 0.028701650934457472 -0.01952273755106489 -0.0098918329013386996 0.036108289690497258 0.0035810543312455247 0.030508947315456291 -0.016759296143903268 0.01680333810898792 0.024132629006355946 0.03612305227639126 -0.034926479379752726 -0.033436094048749039 -0.021256113704516206 -0.033386304537988618 -0.0252459890187124 -0.033439995670067883 0.036129085295585193 0.035561470042102424 0.035656135038501985
leaf_weight=4.8440116345882416 4.890423789620403 5.2406968772411338 8.4659033417701703 5.717278957366946 4.9645038396120054 6.967191278934477 4.8865991234779349 8.4468111693859083 5.1855951100587827 5.2139456570148459 5.7196891903877249 5.4316040426492682 9.0545323938131315 4.9497937709093094 4.9365083277225486 5.7336889207363111 6.4416737705469131 6.3673510700464258 6.2242537587881088 4.9444092810153952 11.365378275513654 7.7890318930149096 10.813609614968298 4.8205965459346771 69.16469244658947 4.813422590494155 5.5250104665756226 5.4353027194738379 56.601480111479759 11.082152709364889
leaf_count=20 20 21 34 23 20 29 20 34 21 21 23 22 37 20 20 23 26 26 25 20 46 32 45 20 288 20 23 22 230 45
internal_value=-3.63469e-06 0.0210383 -0.0239994 0.0271763 0.00623495 -0.0279948 -0.0146301 0.00146235 -0.00770657 -0.0192144 0.0130659 0.0320075 -0.03128 -0.0216353 0.0329138 0.0288447 0.0178279 -0.0275695 0.0259878 0.0329311 0.0344916 -0.0316147 -0.0323823 -0.0284383 -0.0329305 -0.0309134 -0.0341782 0.0356478 0.0356053 0.0358925
internal_weight=312.037 166.251 145.786 144.254 27.0414 131.6 25.9665 13.3334 15.8527 21.9967 14.1856 117.213 105.634 10.1354 111.972 44.9989 12.1754 16.7828 11.1888 32.8235 27.8791 12.633 96.5795 11.7878 84.7917 15.627 10.4154 66.9733 61.538 22.4475
internal_count=1276 674 602 584 109 545 106 54 64 90 57 475 439 41 454 182 49 69 45 133 113 52 402 49 353 65 43 272 250 91
is_linear=0
shrinkage=0.02


Tree=10
num_leaves=31
num_cat=0
split_feature=14 4 38 29 14 33 54 13 25 55 37 47 53 54 32 2 63 26 4 62 47 45 55 30 31 27 28 5 5 14
split_gain=379.996 98.9742 52.1985 35.3071 17.908 14.0816 22.244 13.1095 12.836 8.61995 5.00218 3.35879 3.22659 3.09569 3.60737 4.96359 2.8645 1.98422 1.92575 1.85607 0.520988 2.32054 0.179348 0.514832 0.164011 0.0248987 0.00423543 0.00177673 0.00171645 0.00163729
threshold=0.26422938704490667 -0.25522050261497492 0.60855436325073253 0.49207173287868505 0.76500973105430614 -0.57393622398376454 -0.10164290666580199 0.30523636937141424 -0.25618177652359003 0.15096475929021838 -0.34372575581073755 0.56437301635742199 0.28538458049297338 0.62341827154159557 -0.22747951745986936 0.13643749058246615 0.98009979724884044 -0.34569203853607172 -0.65335237979888905 -0.46337763965129847 -0.021901424974203106 0.13129899650812152 0.60743454098701488 -0.48679919540882105 0.64913290739059459 0.76842704415321361 -0.30404555797576899 0.18619681149721148 -0.28427697718143458 0.060822259634733207
decision_type=2 2 2 2 2 2 2 2 2 2 2 2 2 2 2 2 2 2 2 2 2 2 2 2 2 2 2 2 2 2
left_child=2 8 5 10 7 6 17 -5 -2 -4 -3 20 -9 14 19 -16 -6 26 25 -12 -7 -22 23 -15 29 -10 -1 -24 -21 -23
right_child=1 3 9 4 16 11 -8 12 18 -11 13 -13 -14 22 15 -17 -18 -19 -20 28 21 24 27 -25 -26 -27 -28 -29 -30 -31
leaf_value=-0.033049007199735504 0.0037171208311834931 0.012394674292037246 -0.0068438639974307304 0.016638558082550898 0.036861753087589634 -0.032911576987019624 0.009489011341730004 -0.03229620449463165 -0.035405998526411381 0.025195377948588314 0.022134021530799314 -0.01918839657501633 -0.0096995288261706412 0.035183060795204078 0.032628218405782047 0.0061549564100966238 0.01647446745415973 -0.018105986109308192 -0.019275408367739139 0.035200176145243879 -0.017028685483038427 -0.032966938859210072 0.035032125936228946 0.027316612324232322 -0.028932645831986518 -0.033402466306373543 -0.033832162664369302 0.035428245816003998 0.035614374891625271 -0.033393685735100473
leaf_weight=6.4503722041845348 6.8863261789083507 5.2393050193786612 5.4728893190622321 5.7198601961135891 4.9499774128198606 67.223340973258018 9.7401508241891843 5.1683835983276349 4.8857499063014984 8.6960030049085599 5.6841203272342709 9.0283176898956281 4.9469985663890839 10.3025856167078 5.1961571574211103 6.2290854752063751 6.2215611040592194 4.8669853508472469 5.107771918177602 10.058517321944239 4.8164728879928616 14.316077873110777 57.561269283294678 4.9157324582338324 4.7814940214157096 5.0410589277744293 4.8310322612524024 4.9160950779914847 6.6463295668363562 4.8026263713836661
leaf_count=27 28 21 22 23 20 282 39 21 20 35 23 37 20 42 21 25 25 20 21 41 20 60 235 20 20 21 20 20 27 20
internal_value=-3.90341e-06 0.0206898 -0.0236443 0.0267262 0.00611807 -0.0275926 -0.0143816 -0.00756114 -0.0188964 0.0128199 0.0314933 -0.0308508 -0.0212451 0.0323907 0.0273394 0.0181949 0.0255078 -0.0287796 -0.0292541 0.0320059 -0.0319483 -0.0296933 0.0345891 0.0326421 -0.0322456 -0.0343886 -0.0333844 0.0350633 0.035365 -0.0330741
internal_weight=310.703 165.677 145.026 143.756 27.0068 130.857 25.8885 15.8352 21.9209 14.1689 116.749 104.968 10.1154 111.51 33.8142 11.4252 11.1715 16.1484 15.0346 22.389 95.94 28.7167 77.6957 15.2183 23.9002 9.92681 11.2814 62.4774 16.7048 19.1187
internal_count=1276 674 602 584 109 545 106 64 90 57 475 439 41 454 137 46 45 67 62 91 402 120 317 62 100 41 47 255 68 80
is_linear=0
shrinkage=0.02


Tree=11
num_leaves=31
num_cat=0
split_feature=14 4 38 29 14 33 54 52 67 5 37 7 47 54 63 12 16 53 48 14 23 41 26 30 65 54 46 30 38 64
split_gain=366.723 95.4362 50.5167 34.19 17.232 13.727 21.5031 12.1186 11.5991 8.44511 4.87247 4.51025 3.301 3.0553 2.77824 2.6721 7.3635 1.95672 0.999169 0.519905 0.477621 1.17684 0.289042 0.153302 0.142622 0.0110517 0.00660126 0.00420847 0.00247432 0.00198278
threshold=0.26422938704490667 -0.25522050261497492 0.60855436325073253 0.49207173287868505 0.76500973105430614 -0.57393622398376454 -0.10164290666580199 0.20107272267341617 0.31328569352626806 0.60102185606956493 -0.34372575581073755 0.70219796895980846 0.56437301635742199 -0.32405340671539301 0.98009979724884044 0.45789931714534765 0.6400059461593629 -0.5582558512687682 0.12833396345376971 0.2257514297962189 0.2515282034873963 -0.061349935829639428 0.09756511822342874 -0.20039428025484082 -0.78363439440727223 0.62341827154159557 0.48212920129299169 -0.88571015000343312 0.33387848734855657 0.18189837783575061
decision_type=2 2 2 2 2 2 2 2 2 2 2 2 2 2 2 2 2 2 2 2 2 2 2 2 2 2 2 2 2 2
left_child=2 7 5 10 8 6 17 18 -5 -4 -3 -10 19 -12 -6 22 -17 27 -2 20 28 -22 24 -18 -15 26 -26 -1 -7 -28
right_child=1 3 9 4 14 12 -8 -9 11 -11 13 -13 -14 15 -16 16 23 -19 -20 -21 21 -23 -24 -25 25 -27 29 -29 -30 -31
leaf_value=-0.032760764787205993 -0.022534243751681525 0.012150922068289556 0.025286491183788437 0.016149447899976181 0.036254461420632308 -0.03246110703796394 0.0092988892304419826 0.0043480919102328762 -0.032476512508575126 -0.0061903524443392569 0.016530634983802094 -0.0060420166450860166 -0.018862286367679022 0.031359038019293836 0.016154104683838596 0.0054594435221028059 0.0308714081079196 -0.01808099045471712 -0.032802290329465834 -0.02527446773648975 -0.032703821455041124 -0.020422641001566794 0.030563014977246269 0.035355709099055978 0.035711755063279858 0.034531665162120771 0.035125067977097205 -0.033549573492376354 -0.03283095067574094 0.034593446093514155
leaf_weight=6.1803670078516033 6.8018676340580013 5.2375366985797873 8.4401533752679807 5.4654817283153561 4.9324088394641858 68.347893014550209 9.7405045926570875 6.4841453135013571 5.4126318842172605 5.7201028913259497 4.9487035423517218 4.9363849759101868 9.000995606184004 5.6257702112197867 6.218080073595047 5.1782909035682705 4.893196552991868 5.0643432438373592 8.5629039555788022 5.0285677164793006 9.0258648842573148 4.7706816196441642 8.5745196491479856 8.0928457081317866 5.1707018464803722 57.268547609448433 5.3909137696027738 4.8118518143892279 8.0924015939235669 5.8531286716461182
leaf_count=26 28 21 34 22 20 289 39 26 22 23 20 20 37 23 25 21 20 21 36 21 38 20 35 33 21 235 22 20 34 24
internal_value=-4.15815e-06 0.0203542 -0.023302 0.0262947 0.006005 -0.0272076 -0.0141451 -0.0185805 -0.00742007 0.0125713 0.0310017 -0.0198675 -0.0304395 0.0318912 0.0250455 0.032608 0.0256249 -0.0283671 -0.0282567 -0.0315333 -0.0318821 -0.0284571 0.0340513 0.033666 0.0344284 0.0346628 0.0351203 -0.0331061 -0.0325003 0.0348483
internal_weight=309.272 165.048 144.224 143.199 26.965 130.063 25.7971 21.8489 15.8145 14.1603 116.234 10.349 104.266 110.997 11.1505 106.048 18.1643 16.0566 15.3648 95.2654 90.2368 13.7965 87.8836 12.986 79.3091 73.6833 16.4147 10.9922 76.4403 11.244
internal_count=1276 674 602 584 109 545 106 90 64 57 475 42 439 454 45 434 74 67 64 402 381 58 360 53 325 302 67 46 323 46
is_linear=0
shrinkage=0.02


Tree=12
num_leaves=31
num_cat=0
split_feature=14 38 38 37 33 54 53 43 55 5 55 23 50 47 56 15 19 30 42 11 23 7 61 64 33 37 38 29 42 21
split_gain=354.048 88.8352 48.8991 17.8598 13.3919 20.7932 13.3409 11.25 18.615 9.42999 8.30153 7.97838 5.22559 3.24831 2.88296 4.31414 4.1831 1.97186 0.793854 0.774164 2.22821 0.519324 1.06608 0.195894 0.562428 0.0701083 0.0257325 0.015991 0.00431934 0.00386605
threshold=0.26422938704490667 0.066941414028406157 0.60855436325073253 -0.92510145902633656 -0.57393622398376454 -0.10164290666580199 -0.38199971616268152 0.44463492929935461 0.15559122711420062 0.48986254632472997 0.15096475929021838 0.4185031801462174 -0.023458084091544148 0.56437301635742199 0.35217437148094183 0.032482613809406764 -0.11558900028467177 -0.79086148738861073 -1.0000000180025095e-35 0.41069011390209204 0.69050046801567089 -1.5367758870124815 -1.0000000180025095e-35 -0.7021580934524535 0.19436013698577884 0.030272409319877628 0.56800484657287609 0.27087217569351202 0.61708191037178051 -0.73636427521705616
decision_type=2 2 2 2 2 2 2 2 2 2 2 2 2 2 2 2 2 2 2 2 2 2 2 2 2 2 2 2 2 2
left_child=2 7 4 -3 5 17 12 8 11 14 -4 -2 -5 21 15 18 -17 -1 26 25 -21 22 -6 24 -23 -16 -8 29 -22 -27
right_child=1 3 10 6 13 -7 9 -9 -10 -11 -12 -13 -14 -15 19 16 -18 -19 -20 20 28 23 -24 -25 -26 27 -28 -29 -30 -31
leaf_value=-0.032595945224859875 -0.029240263766932263 -0.0089221491772369949 -0.0069635482382452629 0.021262956715395156 -0.019867393309017257 0.0091129840835405575 0.036419421605479368 -0.034688826297900481 0.024247629381690797 0.0088888944670531891 0.02450473664352186 3.1665593640825207e-05 -0.007246840884800332 -0.018544020980902135 0.03663174313265443 0.028357578551095119 0.0022857534332053841 -0.017290205707867042 0.026640490021672899 0.019865311643713787 0.03406305993399239 -0.023902126308692054 -0.032220736693053385 -0.032150763214979713 -0.032204517187828956 0.034645926907153943 0.034418227195868553 0.035299061877909418 0.034788068977349235 0.034055831421806119
leaf_weight=11.13485476374626 8.8801762163639122 5.3982037454843512 5.4670997560024253 4.9202427566051483 4.7311676293611526 9.7404270172119123 5.1704283356666583 6.7908501029014579 6.1460906565189353 7.8596694618463507 8.6728894114494306 6.4152143299579611 5.3874259144067747 8.9726530909538251 5.1659185886383048 4.9141461700201035 4.9322442859411222 4.8261740356683758 6.8620084375143078 6.135076209902766 8.4839100986719114 4.7180360853672019 6.8259341567754728 67.695793673396111 10.588615804910658 4.8678304105997006 5.1106501370668411 4.9035451859235755 5.3658071607351294 50.650877609848983
leaf_count=47 37 22 22 20 20 39 21 28 25 32 35 26 22 37 21 20 20 20 28 25 35 20 29 288 45 20 21 20 22 209
internal_value=-4.4047e-06 0.0200315 -0.0229731 0.0267276 -0.0268366 -0.0139149 0.0281997 -0.0122552 -0.00515018 0.0300689 0.0123378 -0.016963 0.00636197 -0.0300444 0.0315478 0.0258485 0.0152977 -0.0279679 0.0319085 0.0333454 0.0298992 -0.0311357 -0.0271636 -0.0316888 -0.0296454 0.0343955 0.0354246 0.0342043 0.034344 0.0341076
internal_weight=307.734 164.36 143.374 136.128 129.234 25.7015 130.73 28.2323 21.4415 120.422 14.14 15.2954 10.3077 103.532 112.562 26.9895 9.84639 15.961 17.1431 85.573 19.9848 94.5595 11.5571 83.0024 15.3067 65.5882 10.2811 60.4223 13.8497 55.5187
internal_count=1276 674 602 558 545 106 536 116 88 494 57 63 42 439 462 110 40 67 70 352 82 402 49 353 65 270 42 249 57 229
is_linear=0
shrinkage=0.02


Tree=13
num_leaves=31
num_cat=0
split_feature=14 4 38 29 14 33 54 13 25 49 37 47 53 54 32 70 4 26 62 4 47 45 55 59 40 27 28 53 5 4
split_gain=341.849 89.6826 47.36 32.1819 16.3035 13.0725 20.1149 12.3309 12.19 8.15095 4.67234 3.20019 2.97032 2.94336 3.44296 3.60481 2.67464 1.94587 1.85143 1.81434 0.524306 2.3032 0.174732 0.51378 0.165644 0.0306143 0.00357676 0.00344621 0.00318713 0.00167568
threshold=0.26422938704490667 -0.25522050261497492 0.60855436325073253 0.49207173287868505 0.76500973105430614 -0.57393622398376454 -0.10164290666580199 0.30523636937141424 -0.25618177652359003 0.35286943614482885 -0.34372575581073755 0.56437301635742199 0.28538458049297338 0.62341827154159557 -0.22747951745986936 0.58803242444992077 0.55472731590271007 -0.34569203853607172 -0.46337763965129847 -0.65335237979888905 -0.021901424974203106 0.13129899650812152 0.60743454098701488 -0.6844227910041808 0.43737085163593298 0.76842704415321361 -0.30404555797576899 -0.018502486869692799 0.18619681149721148 0.34995378553867346
decision_type=2 2 2 2 2 2 2 2 2 2 2 2 2 2 2 2 2 2 2 2 2 2 2 2 2 2 2 2 2 2
left_child=2 8 5 10 7 6 17 -5 -2 -4 -3 20 -9 14 18 -16 -6 26 -12 25 -7 -22 23 -15 -23 -10 -1 -20 29 -24
right_child=1 3 9 4 16 11 -8 12 19 -11 13 -13 -14 22 15 -17 -18 -19 27 -21 21 24 28 -25 -26 -27 -28 -29 -30 -31
leaf_value=-0.031892768999351985 0.0038975876856724577 0.01163298949872927 0.023277900821070407 0.01618878271284422 0.013395520717066806 -0.031732255242410037 0.008931171448730164 -0.031269471818454977 -0.034514813188960644 -0.008547288036712359 0.020726911273907144 -0.018233241852433805 -0.0095271546799207824 0.02603668383899322 0.0058752432200555819 0.028411075236247942 0.033143687673611442 -0.016962676296289315 0.034434380605872811 -0.018634454633490307 -0.015755066130169696 -0.031887845642883238 0.033932446774240697 0.033860439224612369 -0.027680292670583983 -0.032276008077392254 -0.032619723234772649 0.033816669795300618 0.034110625583723755 0.033543123784294998
leaf_weight=6.3121591359376898 6.8561427295208004 5.2303359210491172 9.1664663553237897 5.7123401761055019 4.9429176002740842 65.705958098173141 9.7399436384439451 5.1248147785663587 4.8301241844892502 4.9613400995731345 5.6247269958257702 8.9433724731206876 4.9322291761636734 5.077437385916709 5.7086668163537961 5.6484327465295792 6.164594978094101 4.8077806085348156 5.3527508974075344 5.066245257854459 4.7390460669994381 18.701262593269352 4.8352605402469626 9.9110361039638502 4.6790296137332907 4.9438312500715256 4.7404998540878287 11.113356515765188 4.849524959921836 51.755267962813377
leaf_count=27 28 21 37 23 20 282 39 21 20 20 23 37 20 21 23 23 25 20 22 21 20 80 20 41 20 21 20 46 20 215
internal_value=-4.65875e-06 0.0197135 -0.022654 0.0255006 0.00579553 -0.0264791 -0.0136916 -0.00727768 -0.018158 0.0121017 0.0301016 -0.0296646 -0.0206065 0.0309807 0.0260326 0.0170834 0.0243556 -0.0275843 0.0306335 -0.0283476 -0.0307542 -0.0284688 0.0331462 0.0312101 -0.0310458 -0.0333824 -0.0322046 0.0340175 0.0336186 0.0335764
internal_weight=306.177 163.68 142.497 141.984 26.8769 128.369 25.6004 15.7694 21.6963 14.1278 115.107 102.769 10.057 109.876 33.4479 11.3571 11.1075 15.8604 22.0908 14.8402 93.8253 28.1193 76.4285 14.9885 23.3803 9.77396 11.0527 16.4661 61.4401 56.5905
internal_count=1276 674 602 584 109 545 106 64 90 57 475 439 41 454 137 46 45 67 91 62 402 120 317 62 100 41 47 68 255 235
is_linear=0
shrinkage=0.02


Tree=14
num_leaves=31
num_cat=0
split_feature=14 4 38 38 33 54 25 19 67 5 33 33 53 47 53 4 2 33 53 66 14 41 32 37 55 27 27 54 30 55
split_gain=330.215 86.5698 45.8897 31.2689 12.7697 19.4653 11.807 10.1844 9.98334 8.13922 4.35535 3.89732 4.51236 3.15658 1.9402 1.77632 1.53 4.02889 1.073 0.535301 0.524206 0.360812 0.210387 0.0923486 0.0640687 0.0278374 0.0234358 0.012691 0.00533531 0.00298248
threshold=0.26422938704490667 -0.25522050261497492 0.60855436325073253 0.066941414028406157 -0.57393622398376454 -0.10164290666580199 -0.25618177652359003 0.85574147105216991 0.33481544256210333 0.60102185606956493 0.78476032614707958 0.64883163571357738 0.47546967864036566 0.56437301635742199 -0.5582558512687682 -0.65335237979888905 0.23239763081073764 -0.14847027510404584 0.036641132086515434 -0.9566252827644347 0.2257514297962189 0.74869954586029064 -1.3880236148834226 0.64592131972312938 0.01573245553299785 0.76842704415321361 0.31940604746341711 0.63883730769157421 -0.88571015000343312 0.61440536379814159
decision_type=2 2 2 2 2 2 2 2 2 2 2 2 2 2 2 2 2 2 2 2 2 2 2 2 2 2 2 2 2 2
left_child=2 6 4 8 5 14 -2 11 -3 -4 -10 16 -13 20 28 25 22 18 -18 -20 21 23 -5 -6 -24 -8 29 -21 -1 -26
right_child=1 3 9 7 13 -7 15 -9 10 -11 -12 12 -14 -15 -16 -17 17 -19 19 27 -22 -23 24 -25 26 -27 -28 -29 -30 -31
leaf_value=-0.031597925386387414 0.0038182494491446834 0.021461505524103908 0.024405072915796709 0.02920890861314018 -0.031397360326029307 0.0087533325625103586 -0.034028946808581026 0.0076046728052967787 0.00043224028321471998 -0.0065267364215718538 -0.025603021616343737 0.0044277711883931236 0.031517862524050026 -0.017929612184918405 -0.016905006217866402 -0.018320993801408586 0.023717042255899608 0.015279175151972409 0.026973013227633388 0.034179586475786582 -0.024043696831993217 -0.026788299020046945 0.035650260048946072 -0.029225648156142051 0.033510154908345351 -0.031886644464504357 0.034486185222490737 0.033261165714165826 -0.032495042766029866 0.033093669284000295
leaf_weight=6.0377304702997199 6.8586068153381374 4.9256798624992362 8.3957055956125242 4.7984357923269192 70.975821986794472 9.7390787750482541 4.8013941645622253 8.7769640535116178 4.9242789596319181 5.7218001782894126 5.3761536478996277 4.948547035455702 4.8897194713354111 8.9132321178913099 4.9899352490901974 5.0500308573245976 6.8544291257858267 7.8265302181243888 6.0159405618906012 8.7229893356561679 4.9324741661548606 8.350828289985655 5.3789083659648957 8.803739979863165 8.6561626642942411 4.9045102298259735 6.3102083951234809 19.409414112567902 4.7282651811838141 33.473059892654419
leaf_count=26 28 20 34 20 307 39 20 36 20 23 22 20 20 37 21 21 28 32 25 36 21 36 22 38 36 21 26 81 20 140
internal_value=-4.87961e-06 0.0194126 -0.0223453 0.0251152 -0.0261345 -0.0134744 -0.0178634 0.0283851 -0.00195748 0.0118685 -0.0131565 0.0299402 0.0178918 -0.0292996 -0.0272139 -0.0279411 0.0310434 0.0284285 0.0309385 0.032388 -0.0303886 -0.0307437 0.0332217 -0.0311577 0.0335794 -0.0329464 0.0333495 0.0335459 -0.0319919 0.0331792
internal_weight=304.491 162.902 141.589 141.287 127.471 25.495 21.6145 126.061 15.2261 14.1175 10.3004 117.284 9.83827 101.976 15.7559 14.7559 107.446 48.8293 41.0028 34.1483 93.0629 88.1304 58.6168 79.7796 53.8183 9.7059 48.4394 28.1324 10.766 42.1292
internal_count=1276 674 602 584 545 106 90 522 62 57 42 486 40 439 67 62 446 202 170 142 402 381 244 345 224 41 202 117 46 176
is_linear=0
shrinkage=0.02


Tree=15
num_leaves=31
num_cat=0
split_feature=14 4 38 29 14 33 54 13 25 53 37 47 55 33 64 18 63 30 57 62 25 47 45 2 30 56 54 27 68 14
split_gain=319.045 83.568 44.4689 30.4226 15.5354 12.4821 18.8411 11.7894 11.4411 7.93647 4.5875 3.11662 2.91559 4.66603 7.23796 2.90306 2.57644 1.94723 1.74195 1.18661 2.61468 0.524494 2.27928 0.164268 0.0229412 0.00851499 0.00649903 0.00308343 0.00247936 0.00173954
threshold=0.26422938704490667 -0.25522050261497492 0.60855436325073253 0.49207173287868505 0.76500973105430614 -0.57393622398376454 -0.10164290666580199 0.30523636937141424 -0.25618177652359003 0.1673313304781914 -0.34372575581073755 0.56437301635742199 0.60743454098701488 -0.45129455626010889 0.82565942406654369 0.21966638416051867 0.98009979724884044 -0.79086148738861073 1.0000000180025095e-35 -0.46948331594467158 -0.58667972683906544 -0.021901424974203106 0.13129899650812152 -0.25539398193359369 0.69698837399482738 0.12759559601545337 0.65956661105155956 0.41837352514266973 0.051532499492168433 0.048338344320654876
decision_type=2 2 2 2 2 2 2 2 2 2 2 2 2 2 2 2 2 2 2 2 2 2 2 2 2 2 2 2 2 2
left_child=2 8 5 10 7 6 17 -5 -2 -4 -3 21 13 19 -15 -9 -6 28 24 20 -12 -7 -23 -24 -10 -21 -14 -28 -1 -25
right_child=1 3 9 4 16 11 -8 15 18 -11 12 -13 26 14 -16 -17 -18 -19 -20 25 -22 22 23 29 -26 -27 27 -29 -30 -31
leaf_value=-0.031246350669404222 0.003740580842798632 0.01093458778271166 -0.00065424282521380872 0.015723003032457637 0.034619425642478253 -0.031024136529567429 0.0085793543029612489 -0.0093235712293990546 -0.033367628400790827 0.02995658701286991 0.033358938867610308 -0.017632817166439326 0.033517340223742996 0.0031305004280954983 0.034584239162655107 -0.03086118225161482 0.015169662544397625 -0.016185356845022713 -0.017695518276191445 0.033831044794732208 0.014335866223097323 -0.015025320863869306 -0.026948537181906419 -0.031058229704296007 -0.031436051324069181 0.032919932447559204 0.032718675415083415 0.033173998136652297 -0.031852989070263162 -0.031506253549718699
leaf_weight=5.9865984022617322 6.8609732091426876 5.2193697392940512 8.42754417657852 5.7093693614006069 4.8631330877542478 64.589776247739792 9.7378554195165616 4.917562857270239 4.7625486105680448 5.665563002228736 6.7185870856046677 8.8823064267635328 5.0453615188598624 7.3528831899166089 4.8610352873802185 5.0991069972515106 6.194209411740303 4.761105582118037 4.8188224732875815 5.7928955554962185 5.0719139873981494 4.6889712065458324 4.6086547672748628 13.755463540554045 5.0862050652503967 14.064758509397505 52.977754220366478 6.7017282247543326 4.901137188076973 4.6344184875488272
leaf_count=26 28 21 34 23 20 282 39 20 20 23 28 37 21 30 20 21 25 20 20 24 21 20 20 60 22 59 223 28 21 20
internal_value=-5.09004e-06 0.0191175 -0.0220481 0.0247365 0.00555858 -0.0258011 -0.0132625 -0.00721385 -0.0175772 0.0116516 0.0292499 -0.0289478 0.0301303 0.0261492 0.0156488 -0.0202876 0.0237239 -0.0268541 -0.027549 0.0302016 0.0251758 -0.0300369 -0.0277339 -0.030325 -0.0323701 0.0331857 0.0328281 0.0327698 -0.0315194 -0.0311711
internal_weight=302.758 162.118 140.639 140.59 26.7834 126.546 25.3867 15.726 21.5285 14.0931 113.806 101.16 108.587 43.8621 12.2139 10.0167 11.0573 15.6488 14.6676 31.6482 11.7905 92.2773 27.6875 22.9985 9.84875 19.8577 64.7248 59.6795 10.8877 18.3899
internal_count=1276 674 602 584 109 545 106 64 90 57 475 439 454 182 50 41 45 67 62 132 49 402 120 100 42 83 272 251 47 80
is_linear=0
shrinkage=0.02


Tree=16
num_leaves=31
num_cat=0
split_feature=14 4 33 54 29 14 13 52 14 28 37 54 28 54 32 2 53 4 43 62 44 23 21 60 37 56 12 47 47 41
split_gain=308.366 80.7199 40.4596 34.1113 29.5548 14.9669 11.3481 11.1227 10.495 7.98192 4.49036 4.37046 9.28348 2.91248 3.31605 4.7296 2.82047 2.57089 1.86548 1.80745 1.15294 0.950554 3.08637 0.561157 0.164572 0.127649 0.126028 0.122874 0.0499766 0.00656739
threshold=0.26422938704490667 -0.25522050261497492 -0.57393622398376454 -0.027744438499212262 0.49207173287868505 0.76500973105430614 0.30523636937141424 0.20107272267341617 -0.64115324616432179 0.11553840339183809 -0.34372575581073755 0.45069549977779394 0.26805657148361212 0.62341827154159557 -0.22747951745986936 0.13643749058246615 0.28538458049297338 0.55472731590271007 -0.21955208480358121 -0.46337763965129847 0.10346536338329317 0.36929668486118322 0.74409028887748729 -0.22228905558586118 1.0317314863204958 0.61730334162712108 0.641454577445984 -1.2067015171051023 0.51982671022415172 0.88067755103111278
decision_type=2 2 2 2 2 2 2 2 2 2 2 2 2 2 2 2 2 2 2 2 2 2 2 2 2 2 2 2 2 2
left_child=2 7 3 9 10 6 -6 20 -5 23 -3 21 27 14 19 -16 -8 -7 -10 -12 -2 25 -23 -1 26 28 -15 -13 29 -4
right_child=1 4 11 8 5 17 16 -9 18 -11 13 12 -14 24 15 -17 -18 -19 -20 -21 -22 22 -24 -25 -26 -27 -28 -29 -30 -31
leaf_value=-0.032366934191938382 -0.032446436080679153 0.010723485304908274 -0.030696213283121301 -0.004321571742835934 0.015409706533949376 0.012561998594007719 -0.030398446921794133 0.0046249849183718971 0.037533901225841333 -0.0014659255512697719 0.019499099233678353 -0.026759011795156853 0.0032945446546283849 0.032388310588361231 0.030248715792978619 0.0042017313585785655 -0.0091397048191048762 0.031992206372657192 0.020740654018857562 0.032724132916577039 -0.021343882611970299 -0.011818739962538641 -0.031796821625375601 -0.023829083511178156 0.028294316423389577 -0.027447077932786529 0.029165374679689361 -0.031122025200518745 -0.032879277362844767 -0.031480382942405835
leaf_weight=9.0543360859155655 7.311957314610483 5.2157125473022452 60.60698938369751 5.4805563092231777 5.7089413404464748 4.9185336083173734 5.074160769581793 6.464459389448165 5.7049538195133218 5.7928784787654868 5.5557536482811001 4.5619333088397971 5.2713580876588813 64.934444040060043 5.0842421352863294 6.1754750162363052 4.9138204455375671 6.1046212017536163 4.9346169382333729 16.149017706513405 7.6613610088825226 4.702772617340087 9.0370769500732404 4.66617774963379 4.7329872995614997 4.5743715018033972 5.2451578080654135 5.9488681256771079 4.7361101508140555 4.5959726870059958
leaf_count=39 31 21 267 22 23 20 21 26 23 24 23 20 22 275 21 25 20 25 20 68 33 20 39 20 20 20 22 26 20 20
internal_value=-5.26816e-06 0.0188372 -0.0217592 -0.00336627 0.0243781 0.00546041 -0.0070832 -0.0172999 0.0181631 -0.0211518 0.0288478 -0.0280591 -0.0183655 0.0297241 0.0247701 0.0159631 -0.0199397 0.0233224 0.0297452 0.0293389 -0.0267656 -0.0297926 -0.0249589 -0.0294633 0.031904 -0.0306839 0.0321474 -0.0292284 -0.0308956 -0.0307515
internal_weight=300.92 161.251 139.669 35.6335 139.813 26.7201 15.6969 21.4378 16.1201 19.5134 113.093 104.035 15.7822 107.877 32.9645 11.2597 9.98798 11.0232 10.6396 21.7048 14.9733 88.2533 13.7398 13.7205 74.9126 74.5134 70.1796 10.5108 69.9391 65.203
internal_count=1276 674 602 148 584 109 64 90 65 83 475 454 68 454 137 46 41 45 43 91 64 386 59 59 317 327 297 46 307 287
is_linear=0
shrinkage=0.02


Tree=17
num_leaves=31
num_cat=0
split_feature=14 4 38 38 33 54 25 19 67 5 33 33 53 47 26 4 2 33 61 34 7 60 32 64 41 29 56 27 54 54
split_gain=298.12 77.9927 42.3386 29.1583 11.8191 17.5904 11.067 9.80983 9.25838 7.71397 4.07861 3.53668 4.1812 3.07828 1.92563 1.7336 1.48322 3.88477 1.07331 0.667232 0.527396 1.07762 0.210709 0.200204 0.571398 0.0698052 0.0305607 0.0271143 0.011971 0.00958707
threshold=0.26422938704490667 -0.25522050261497492 0.60855436325073253 0.066941414028406157 -0.57393622398376454 -0.10164290666580199 -0.25618177652359003 0.85574147105216991 0.33481544256210333 0.60102185606956493 0.78476032614707958 0.64883163571357738 0.47546967864036566 0.56437301635742199 -0.34569203853607172 -0.65335237979888905 0.23239763081073764 -0.14847027510404584 -0.99337676167488087 -0.79647833108901966 -1.5367758870124815 0.18905232846736911 -1.3880236148834226 -0.7021580934524535 0.096764065325260176 0.067304696887731566 0.038415007293224342 0.76842704415321361 0.47628733515739446 0.75691729784011852
decision_type=2 2 2 2 2 2 2 2 2 2 2 2 2 2 2 2 2 2 2 2 2 2 2 2 2 2 2 2 2 2
left_child=2 6 4 8 5 14 -2 11 -3 -4 -10 16 -13 20 -1 27 22 18 -18 -20 21 -6 -5 24 -22 28 -21 -8 -24 -28
right_child=1 3 9 7 13 -7 15 -9 10 -11 -12 12 -14 -15 -16 -17 17 -19 19 26 23 -23 25 -25 -26 -27 29 -29 -30 -31
leaf_value=-0.030905766222161572 0.0039309844728067748 0.020464073185252542 0.023687703075105065 0.027957766846816758 -0.017842409076553069 0.0081202284609693549 -0.033014434925131571 0.0067475305999359627 0.00017240150434396688 -0.0064780765574874791 -0.025098495608509491 0.0043013150231367876 0.030486809940279077 -0.016999463040201043 -0.015571995355696439 -0.017380822514267504 0.023549679636906608 0.014287861506656016 0.024751329374346164 0.034168885584460677 -0.030484333189366337 -0.030504212871024797 0.03280590363955687 -0.030431585338008733 -0.021948047658195628 0.034170400326433661 0.032809248808012004 -0.030878321640508334 0.031935332611420147 0.031967430047953715
leaf_weight=10.717590183019636 6.8421351760625866 4.8870509117841712 8.342912405729292 4.7013460546731869 4.5638234466314298 9.7274310141801816 4.7218210399150848 8.6941128671169263 4.9026052057743055 5.7126947641372672 5.3341674655675888 4.9288377910852414 4.8288078755140305 8.8079116195440275 4.718033283948901 4.9883258342742893 8.7464636564254743 7.753378137946128 4.979904666543006 4.8278797566890779 10.146946474909781 6.5436775982379913 7.5911977440118852 64.858853176236153 4.5400148034095755 7.4513460099697104 11.396546691656114 4.7861781418323517 37.670427143573761 10.304020360112188
leaf_count=47 28 20 34 20 20 39 20 36 20 23 22 20 20 37 20 21 37 32 21 20 45 29 32 288 20 31 48 21 161 44
internal_value=-5.44916e-06 0.018567 -0.0214782 0.0240323 -0.0251894 -0.0129442 -0.0170341 0.027233 -0.00218367 0.0114273 -0.0129957 0.0287793 0.0172598 -0.0282873 -0.0262189 -0.0269295 0.0298455 0.0272513 0.0297481 0.0314687 -0.0293841 -0.0253018 0.0320148 -0.0299541 -0.0278456 0.0323766 0.0327297 -0.0319391 0.0320813 0.0324095
internal_weight=299.016 160.337 138.68 138.998 124.624 25.1631 21.3385 123.874 15.1238 14.0556 10.2368 115.18 9.75765 99.4612 15.4356 14.4963 105.423 48.0082 40.2548 31.5084 90.6533 11.1075 57.4143 79.5458 14.687 52.713 26.5284 9.508 45.2616 21.7006
internal_count=1276 674 602 584 545 106 90 522 62 57 42 486 40 439 67 62 446 202 170 133 402 49 244 353 65 224 112 41 193 92
is_linear=0
shrinkage=0.02


Tree=18
num_leaves=31
num_cat=0
split_feature=14 4 38 38 33 54 25 19 67 4 15 33 47 57 26 57 2 33 61 34 47 45 32 31 29 56 32 54 54 7
split_gain=288.253 75.352 41.0656 28.2773 11.5725 17.0425 10.7345 9.57262 8.90891 7.66045 4.10265 3.47807 3.04719 2.74892 1.89619 1.71596 1.46587 3.80457 1.05122 0.654652 0.528675 2.25282 0.206665 0.16847 0.0636275 0.0277567 0.021193 0.0109055 0.00872268 0.00553945
threshold=0.26422938704490667 -0.25522050261497492 0.60855436325073253 0.066941414028406157 -0.57393622398376454 -0.10164290666580199 -0.25618177652359003 0.85574147105216991 0.33481544256210333 0.31693911552429205 0.1519097834825516 0.64883163571357738 0.56437301635742199 0.33087819814682012 -0.34569203853607172 1.0000000180025095e-35 0.23239763081073764 -0.14847027510404584 -0.99337676167488087 -0.79647833108901966 -0.021901424974203106 0.13129899650812152 -1.3880236148834226 0.64913290739059459 0.067304696887731566 0.038415007293224342 0.5015387386083604 0.47628733515739446 0.75691729784011852 0.4375693947076798
decision_type=2 2 2 2 2 2 2 2 2 2 2 2 2 2 2 2 2 2 2 2 2 2 2 2 2 2 2 2 2 2
left_child=2 6 4 8 5 14 -2 11 -3 -4 -10 16 20 -13 -1 26 22 18 -18 -20 -6 -22 -5 -23 27 -21 -8 -24 29 -27
right_child=1 3 9 7 12 -7 15 -9 10 -11 -12 13 -14 -15 -16 -17 17 -19 19 25 21 23 24 -25 -26 28 -28 -29 -30 -31
leaf_value=-0.030574381918512309 0.0038509512424466344 0.020097587152010706 -0.0054689029977602142 0.027591964107572128 -0.030076809640670926 0.0079597944128365315 -0.032390762414410669 0.0066177398456072779 0.00046842648195757989 0.024308913279128933 -0.024897714970025447 0.0063768885996558786 -0.016722719357228952 0.027635011756938443 -0.015317135634203704 -0.016748565053535839 0.023206198199903664 0.014033490392727175 0.024394736948772221 0.033696681677419058 -0.013995622357279263 -0.030220368594827237 0.032394467753986793 -0.025886696575867996 0.033701398930979426 0.031912343249496905 -0.030514185654100412 0.031560361933007222 0.031590976498858933 0.032801197151910072
leaf_weight=10.618078827857969 6.8446209728717831 4.8767477273941031 6.1653848290443403 4.6687290668487469 62.81254306435585 9.7250469923019391 4.6748185008764249 8.6874023526906949 4.8918624520301801 7.8624883145093918 5.3285690397024155 4.8881770670413953 8.774933308362959 4.8446961641311646 4.7007796466350582 4.7612258344888678 8.6988836675882322 7.7362112998962393 4.9519267529249182 4.7979234606027665 4.6082044839859035 17.897464245557789 7.5344290137291017 4.4878852665424338 7.4044103920459738 5.14219479262829 4.962761253118515 37.358760416507721 10.219124063849447 6.1693484634160995
leaf_count=47 28 20 25 20 282 39 20 36 20 32 22 20 37 20 20 20 37 32 21 20 20 80 32 20 31 22 22 161 44 26
internal_value=-5.64054e-06 0.0182989 -0.0212077 0.0236895 -0.0248875 -0.012747 -0.0167695 0.0268577 -0.0021439 0.0112213 -0.0127566 0.0283944 -0.0279717 0.0169585 -0.0258925 -0.0265716 0.0294577 0.0268718 0.029356 0.0310663 -0.0290709 -0.0267301 0.0316237 -0.0293515 0.0319837 0.0323211 -0.0314244 0.0317004 0.0320145 0.0323971
internal_weight=297.096 159.443 137.653 138.199 123.625 25.0439 21.2434 123.102 15.0972 14.0279 10.2204 114.415 98.581 9.73287 15.3189 14.3988 104.682 47.7156 39.9794 31.2805 89.8061 26.9936 56.9663 22.3853 52.2976 26.3286 9.63758 44.8932 21.5307 11.3115
internal_count=1276 674 602 584 545 106 90 522 62 57 42 486 439 40 67 62 446 202 170 133 402 120 244 100 224 112 42 193 92 48
is_linear=0
shrinkage=0.02


Tree=19
num_leaves=31
num_cat=0
split_feature=14 4 38 38 33 54 53 67 49 29 14 15 47 56 53 18 53 18 4 4 14 23 69 16 50 59 56 30 30 55
split_gain=278.765 72.8169 39.852 27.4324 11.3377 16.5161 10.7191 8.57362 7.65558 7.02078 10.1131 3.95911 3.01923 2.88654 2.87058 6.34606 1.94758 1.79674 1.98018 3.89298 0.529362 0.506595 1.22397 0.224114 0.499419 0.0225538 0.0137574 0.00729512 0.00718856 0.004507
threshold=0.26422938704490667 -0.25522050261497492 0.60855436325073253 0.066941414028406157 -0.57393622398376454 -0.10164290666580199 0.65354847908020031 0.33481544256210333 0.35286943614482885 -0.0045007738517597309 0.572574943304062 0.1519097834825516 0.56437301635742199 -0.13637077063322064 0.70132052898406994 0.20932611078023913 -0.5582558512687682 0.8056878149509431 0.33751291036605841 0.15685390681028369 0.2257514297962189 0.2515282034873963 0.49911072850227362 -0.048170272260904305 0.84157356619834911 0.63688156008720409 0.28455151617527014 -0.88571015000343312 -0.464761272072792 0.61440536379814159
decision_type=2 2 2 2 2 2 2 2 2 2 2 2 2 2 2 2 2 2 2 2 2 2 2 2 2 2 2 2 2 2
left_child=2 6 4 7 5 16 13 -3 -4 17 -11 -9 20 25 15 -12 27 18 19 -5 21 -6 -23 24 -20 -2 28 -1 -25 -28
right_child=1 3 8 9 12 -7 -8 11 -10 10 14 -13 -14 -15 -16 -17 -18 -19 23 -21 -22 22 -24 26 -26 -27 29 -29 -30 -31
leaf_value=-0.030002976929472808 -0.032268206475377974 0.019740774152010011 0.021913903555672427 0.032428800996129999 -0.029797363897912071 0.0078027422482610086 0.0085697554017689932 0.00045905605763973771 -0.0090361631731767488 -0.0048415878434922973 0.031444165180521087 -0.024478383456932793 -0.016451686177063347 -0.013838805471157963 0.032851248525087799 0.0045162385087492152 -0.015115207016338526 0.017768472053430899 0.032071716141890708 0.008300850737964393 -0.022277937048940769 -0.017059194772312849 -0.029983895709026785 0.031561768538844952 0.023376043090568868 -0.030353868267176225 0.031621763428915324 -0.031072018067147315 0.032669257999586164 0.03119787173182061
leaf_weight=5.7733982205390921 4.9123193174600601 4.865707427263259 9.0747828334569913 6.1050168573856336 71.256441697478294 9.7224013060331327 5.154075399041175 4.8918842524290067 4.9354059398174277 6.1552767902612713 7.2080732583999652 5.3116238415241241 8.7414447665214521 6.1433096379041681 8.9785724431276304 6.8063468337059021 4.8481247723102596 5.2154292464256278 6.0898097008466703 4.7607286870479584 4.7556377649307242 4.4908927083015433 8.4368435740470868 4.6398242712020874 4.6662531048059464 4.9346864223480225 13.001933500170706 4.5779108256101599 4.7386160194873792 43.94067570567131
leaf_count=26 21 20 37 26 323 39 21 20 20 25 30 22 37 26 38 28 21 22 26 20 21 20 38 20 20 22 56 20 20 191
internal_value=-5.84333e-06 0.0180386 -0.0209439 0.0233566 -0.0245954 -0.0125546 -0.0165124 -0.00210505 0.011011 0.0264937 0.0179272 -0.0125226 -0.0276675 -0.0245971 0.0240225 0.0183661 -0.0255762 0.029174 0.0298504 0.0218574 -0.0287698 -0.0291365 -0.0254941 0.0309772 0.0282993 -0.0313089 0.0314116 -0.0304758 0.0321213 0.0312947
internal_weight=295.133 158.52 136.613 137.376 122.603 24.9218 21.1444 15.0692 14.0102 122.307 29.1483 10.2035 97.6813 15.9903 22.993 14.0144 15.1994 93.1583 87.9429 10.8657 88.9398 84.1842 12.9277 77.0771 10.7561 9.84701 66.321 10.3513 9.37844 56.9426
internal_count=1276 674 602 584 545 106 90 62 57 522 121 42 439 69 96 58 67 401 379 46 402 381 58 333 46 43 287 46 40 247
is_linear=0
shrinkage=0.02


Tree=20
num_leaves=31
num_cat=0
split_feature=14 4 38 29 14 33 54 13 52 5 37 47 54 32 2 18 4 28 62 48 7 62 64 33 55 65 27 24 53 14
split_gain=269.666 70.3995 38.6856 26.7666 13.9878 11.1141 16.0082 10.6907 10.464 7.41103 4.44225 2.99363 2.94714 3.22912 4.5109 2.72904 2.47153 1.91925 1.80888 1.00636 0.531992 1.10007 0.204083 0.578915 0.171281 0.541453 0.00555618 0.00400571 0.00344573 0.00311769
threshold=0.26422938704490667 -0.25522050261497492 0.60855436325073253 0.49207173287868505 0.76500973105430614 -0.57393622398376454 -0.10164290666580199 0.30523636937141424 0.20107272267341617 0.60102185606956493 -0.34372575581073755 0.56437301635742199 0.62341827154159557 -0.22747951745986936 0.13643749058246615 0.21966638416051867 0.55472731590271007 -0.081316057592630372 -0.46337763965129847 0.12833396345376971 -1.5367758870124815 -0.24389266222715375 -0.7021580934524535 0.19436013698577884 0.60743454098701488 0.016650901641696695 0.26202240586280828 -0.94795015454292286 0.051928661763668067 0.18774169683456424
decision_type=2 2 2 2 2 2 2 2 2 2 2 2 2 2 2 2 2 2 2 2 2 2 2 2 2 2 2 2 2 2
left_child=2 8 5 10 7 6 17 -5 19 -4 -3 20 13 18 -15 -9 -6 27 -12 -2 21 -7 23 -22 25 -14 -26 -1 -20 -24
right_child=1 3 9 4 16 11 -8 15 -10 -11 12 -13 24 14 -16 -17 -18 -19 28 -21 22 -23 29 -25 26 -27 -28 -29 -30 -31
leaf_value=-0.029654744237929017 -0.019799484600894448 0.0092961128563522066 0.022889722950538118 0.014702326683341198 0.011796260613634365 -0.016698506900542722 0.0076489837113319914 -0.0090411225402876726 0.0049664943586000031 -0.006724072538741163 0.017898889757230831 -0.016186137422009406 0.031242740991501396 0.028671668286047992 0.0030224250584269413 -0.030034997124493361 0.03094928095275563 -0.014571223402174635 0.031659711889553702 -0.030360079739154631 -0.020887674555404839 -0.029659413351048342 -0.02950848279733588 -0.029598902165364281 0.030902198207766643 0.022927062589972944 0.031416655265570401 -0.030439491379461014 0.031050185192286417 -0.030023762146810729
leaf_weight=5.4865880608558646 6.5340519845485714 5.1748221814632407 8.2826069593429548 5.6871607601642635 4.8787856400012952 4.4517172873020172 9.7195113599300367 4.8786602169275266 6.4432268142700186 5.7110169976949683 5.4406335949897775 8.7075023055076581 9.6710275560617429 4.9656540900468809 6.1265328377485275 5.030730277299881 6.0206672698259354 4.6440611630678204 6.0371812880039224 8.0639421194791776 4.4200091809034268 6.3642877936363202 57.855824738740928 9.8559126704931241 48.158831834793091 4.6321975886821738 10.170698359608648 4.9485045075416556 9.623457267880438 5.1118468195199958
leaf_count=25 28 21 34 23 20 20 39 20 26 23 23 37 42 21 25 21 25 20 26 36 20 29 265 45 211 20 44 22 42 23
internal_value=-5.98466e-06 0.0177895 -0.0206867 0.0230387 0.00499301 -0.0243116 -0.0123659 -0.00715492 -0.016263 0.0108039 0.0273854 -0.027373 0.0282784 0.0232413 0.0145049 -0.0196991 0.0223761 -0.0252669 0.0278337 -0.0256332 -0.0284791 -0.0243249 -0.0290608 -0.0269018 0.030511 0.0285497 0.0309919 -0.0300269 0.0312852 -0.0295503
internal_weight=293.098 157.538 135.559 136.497 26.496 121.566 24.7987 15.5966 21.0412 13.9936 110.001 96.7671 104.826 32.1935 11.0922 9.90939 10.8995 15.0792 21.1013 14.598 88.0596 10.816 77.2436 14.2759 72.6328 14.3032 58.3295 10.4351 15.6606 62.9677
internal_count=1276 674 602 584 109 545 106 64 90 57 475 439 454 137 46 41 45 67 91 64 402 49 353 65 317 62 255 47 68 288
is_linear=0
shrinkage=0.02


Tree=21
num_leaves=31
num_cat=0
split_feature=14 4 38 38 33 14 25 19 67 55 46 33 33 53 47 4 55 33 59 6 19 55 47 45 2 40 27 27 56 2
split_gain=260.956 68.0909 37.5539 26.212 10.8984 13.5729 10.2867 9.2303 8.11372 7.40599 4.34714 3.82388 3.29551 3.87719 2.97028 1.73838 1.45856 2.52525 3.77863 1.75443 0.808747 0.543443 0.538088 2.26654 0.184785 0.172943 0.0283538 0.0265339 0.0157083 0.00528573
threshold=0.26422938704490667 -0.25522050261497492 0.60855436325073253 0.066941414028406157 -0.57393622398376454 -0.24871014803647992 -0.25618177652359003 0.85574147105216991 0.33481544256210333 0.15096475929021838 0.3749877810478211 0.78476032614707958 0.64883163571357738 0.47546967864036566 0.56437301635742199 -0.65335237979888905 0.60743454098701488 -0.49473226070404047 -0.073784105479717241 0.33512251079082495 -0.36802475154399866 -0.6524941325187682 -0.021901424974203106 0.13129899650812152 1.0344928503036501 0.43737085163593298 0.76842704415321361 0.41837352514266973 -0.01085038762539625 0.21079856902360919
decision_type=2 2 2 2 2 2 2 2 2 2 2 2 2 2 2 2 2 2 2 2 2 2 2 2 2 2 2 2 2 2
left_child=2 6 4 8 5 10 -2 12 -3 -4 21 -10 16 -14 22 26 17 20 -19 -20 -5 -1 -6 -24 27 -25 -8 29 -22 -18
right_child=1 3 9 7 14 -7 15 -9 11 -11 -12 -13 13 -15 -16 -17 24 18 19 -21 28 -23 23 25 -26 -27 -28 -29 -30 -31
leaf_value=-0.026060688219331638 0.0041652468797061986 0.019121718051816304 -0.0076204340752401298 0.023403145571458141 -0.029230110230962243 0.009399058690667577 -0.031978997743060289 0.0058722539252231204 0.00041229941194333565 0.022248548199816448 -0.0096295913949941952 -0.024146544588410861 0.0037448352273916244 0.02910779785716051 -0.015925862725487398 -0.016120565274246858 0.030511085872061805 0.0043163761097045981 0.033292585264288029 0.016837068130252549 0.032203647675036293 -0.035286911984756614 -0.012913605075385729 -0.029377382328370616 0.026596529141920712 -0.024922378441875781 -0.029761947660398885 0.032068009209091891 0.030888532018279409 0.030979495748979843
leaf_weight=5.2850236296653783 6.8103976845741299 4.8356705754995337 5.4398313909769049 7.1825527697801617 60.913188770413399 7.9164764434099189 4.6100089699029922 8.6029478907585126 4.8792926222085935 8.522887319326399 6.5292664021253577 5.2805287837982178 4.9113353043794614 4.7354166507720947 8.673159644007681 4.8904153853654835 35.446511313319206 4.7663862854242334 5.695087775588032 4.7558335214853287 4.6838154345750835 4.9412445724010485 4.5168360918760326 17.376232415437702 4.5522989779710761 4.3601080030202857 4.6195386648178101 5.8134757429361335 16.192870929837227 13.234154149889944
leaf_count=24 28 20 22 31 282 33 20 36 20 35 28 22 20 20 37 21 157 20 24 20 20 21 20 80 20 20 21 25 71 58
internal_value=-6.12201e-06 0.0175509 -0.0204387 0.0227345 -0.0240363 -0.0121822 -0.0160236 0.0258359 -0.00220256 0.0106117 -0.0223787 -0.0123521 0.0273698 0.0161951 -0.0270879 -0.0257611 0.0284233 0.0256341 0.0190738 0.0258043 0.029192 -0.0305187 -0.0281985 -0.0258049 0.0304676 -0.0284837 -0.0308693 0.0307909 0.0311836 0.0306384
internal_weight=290.973 156.499 134.474 135.568 120.512 24.672 20.9304 120.573 14.9955 13.9627 16.7555 10.1598 111.97 9.64675 95.8395 14.12 102.323 43.2765 15.2173 10.4509 28.0592 10.2263 87.1664 26.2532 59.0464 21.7363 9.22955 54.4941 20.8767 48.6807
internal_count=1276 674 602 584 545 106 90 522 62 57 73 42 486 40 439 62 446 186 64 44 122 45 402 120 260 100 41 240 91 215
is_linear=0
shrinkage=0.02


Tree=22
num_leaves=31
num_cat=0
split_feature=14 4 38 29 14 33 54 53 33 4 37 29 54 58 54 28 56 15 26 62 23 21 54 37 12 59 32 45 18 38
split_gain=252.487 65.8531 36.4549 25.502 13.4093 10.7398 15.4236 10.1853 7.75733 7.27038 4.40536 3.89098 2.92474 3.20958 2.85517 7.77617 2.83934 2.75866 1.931 1.2971 0.780768 2.17163 0.525214 0.16894 0.128097 0.0246041 0.0241673 0.0104799 0.0057834 0.00500677
threshold=0.26422938704490667 -0.25522050261497492 0.60855436325073253 0.49207173287868505 0.55082702636718761 -0.57393622398376454 -0.10164290666580199 0.65354847908020031 1.2375808954238894 0.31693911552429205 -0.34372575581073755 0.71931383013725292 0.62341827154159557 -0.81926488876342762 0.45069549977779394 0.23673507571220401 -0.13637077063322064 0.34838409721851354 -0.34569203853607172 0.91460856795310985 0.36929668486118322 0.79243040084838878 -0.12434035912156104 1.0317314863204958 0.641454577445984 0.63688156008720409 -0.34993323683738703 0.73394301533699047 0.73801600933074962 0.25881570577621466
decision_type=2 2 2 2 2 2 2 2 2 2 2 2 2 2 2 2 2 2 2 2 2 2 2 2 2 2 2 2 2 2
left_child=2 7 5 10 -5 6 18 16 11 -4 -3 -6 13 -12 20 -16 25 22 -1 -13 27 -22 -15 24 28 -2 -24 29 -14 -7
right_child=1 3 9 4 8 14 -8 -9 -10 -11 12 19 23 17 15 -17 -18 -19 -20 -21 21 -23 26 -25 -26 -27 -28 -29 -30 -31
leaf_value=-0.029602193902468737 -0.031550090274871358 0.0086817399045336068 -0.0058495071240016088 -0.020096973345024607 0.0059797573818727899 -0.028932316739107379 0.0076204281373526894 0.0086568583742339736 -0.0089936099326235978 0.023241503903741245 0.007312335348608247 0.034878720624161516 0.030324050818355888 0.023599570387102756 -0.02905225723450439 0.0026880900840864307 -0.013070464352692712 0.015535573757782759 -0.014008645700752774 0.020355563005756673 -0.012488900775430309 -0.029913875582269961 0.030669536611340753 0.02613222364830883 0.027059818791648316 -0.029527452443826249 0.032354446902598546 -0.029885072620486241 0.03106252292111427 -0.02943904072151499
leaf_weight=10.275813981890677 4.8269927203655243 5.1542296260595313 6.145825043320654 6.518268674612048 5.1377932280302074 53.556545257568359 9.7138832062482816 5.1382365375757209 4.858604133129119 7.794659823179245 4.6930455267429378 4.8098586201667768 57.227332562208176 4.658124089241034 9.2214702367782575 4.6414985060691825 6.0660184770822534 8.1948996335268003 4.5978446900844601 5.0347453206777573 4.4742956012487394 7.9338765144348145 8.6092919409275108 4.5160988569259635 5.0300251841545096 4.7956952601671219 5.63317094743251 5.9401936382055274 4.5816649049520484 9.1291634142398816
leaf_count=47 21 21 25 27 21 251 39 21 20 32 20 20 255 20 43 20 26 35 20 21 20 36 38 20 22 22 24 27 20 42
internal_value=-6.23747e-06 0.0173136 -0.0201896 0.0224325 0.00479056 -0.0237604 -0.0119805 -0.0157825 0.0129667 0.0104164 0.0267265 0.0200882 0.0276282 0.0225824 -0.0268125 -0.0184252 -0.0237867 0.0252272 -0.0247818 0.0274513 -0.0282474 -0.0236306 0.0294293 0.0298761 0.030129 -0.0305421 0.031336 -0.0290822 0.0303788 -0.0290061
internal_weight=288.909 155.484 133.425 134.657 26.3593 119.485 24.5875 20.8269 19.841 13.9405 108.298 14.9824 103.144 31.7885 94.897 13.863 15.6887 27.0955 14.8737 9.8446 81.0341 12.4082 18.9006 71.3551 66.839 9.62269 14.2425 68.6259 61.809 62.6857
internal_count=1276 674 602 584 109 545 106 90 82 57 475 62 454 137 439 63 69 117 67 41 376 56 82 317 297 43 62 320 275 293
is_linear=0
shrinkage=0.02


Tree=23
num_leaves=31
num_cat=0
split_feature=38 54 5 4 4 39 38 36 5 31 33 23 15 45 30 54 12 5 54 57 44 20 70 37 2 23 27 70 66 8
split_gain=228.204 55.1781 41.1077 32.4019 26.9589 15.9483 9.81072 9.42901 8.67251 7.58348 5.11711 16.6275 4.79333 4.7056 4.11197 3.10518 2.71796 4.27932 1.57927 3.49326 1.4651 1.29237 0.753259 0.707707 0.604934 0.365049 0.180038 0.16558 0.136946 0.122535
threshold=0.33387848734855657 0.38515265285968786 -0.29300405085086817 -0.66761136054992665 0.41309757530689245 0.79889878630638134 -0.62696143984794606 0.62414807081222545 0.40544904768466955 1.1052883863449099 0.044818297028541572 0.35121950507164007 0.25469188392162329 0.27646966278553015 0.7664637863636018 -0.32405340671539301 0.49391037225723272 0.20514567196369174 0.45069549977779394 0.39712534844875341 0.41466033458709722 0.21851062029600146 0.2024006322026253 0.067168753594160094 1.2941978573799136 0.17960362136363986 -0.33561290800571436 -1.2607477307319639 -1.1884182095527647 0.49148613214492803
decision_type=2 2 2 2 2 2 2 2 2 2 2 2 2 2 2 2 2 2 2 2 2 2 2 2 2 2 2 2 2 2
left_child=2 4 3 -1 8 9 -5 15 12 16 11 13 -2 29 21 -6 23 22 24 -20 -17 -8 -18 -3 26 -25 -12 -27 -29 -4
right_child=1 5 10 6 7 -7 14 -9 -10 -11 18 -13 -14 -15 -16 20 17 -19 19 -21 -22 -23 -24 25 -26 27 -28 28 -30 -31
leaf_value=-0.029758764813435597 0.0092861827511852551 0.02219421649217353 -0.029373540339283705 -0.010700279009996852 0.0087530398841179531 -0.0057751719615519673 0.033464734033569303 -0.01006600978080479 -0.031433493091329263 0.0032532632115025318 -0.024995787379645713 0.012827767378372887 -0.018033220327155857 -0.012189895367327721 0.0068755374488681034 0.033298785746164128 0.033627692073971961 0.0076321951672494561 -0.0073918996017689042 -0.030350736479033923 0.018496214280771719 0.019992164401116872 0.022680357005784395 0.034279293306498426 -0.021548992677309694 0.026080621346181349 -0.029257982990717944 0.027458776458524715 0.030332665802797393 -0.033182776827508323
leaf_weight=9.1716525256633776 4.7419812232255953 4.7209020256996146 13.146504372358331 4.6563392132520702 5.6416954249143645 6.3709059804677954 7.5170657932758349 5.1964727193117133 10.306510835886 5.1603422462940207 4.2694453895092002 5.8429984599351874 5.6059455424547195 8.4221923649311048 5.0501893907785407 6.3031583875417709 5.6095802038908023 6.1936942785978308 4.7818253189325315 5.9485965520143509 4.6459055244922638 4.5853273421525955 4.5561085641384125 7.7797925770282736 4.7659054547548285 4.700142189860343 55.451803877949715 7.5712017714977256 53.485727086663246 4.5459262877702704
leaf_count=42 20 20 61 20 24 27 32 22 46 22 20 25 24 37 21 27 24 26 21 27 20 20 20 33 22 21 259 34 239 20
internal_value=-6.41222e-06 0.0171977 -0.0185099 0.0017814 -0.0020766 0.0249042 0.0150455 0.0134434 -0.0184478 0.0268631 -0.0243754 -0.0176709 -0.00551399 -0.0244948 0.0220346 0.0208068 0.0281508 0.0207369 -0.0272239 -0.0201195 0.0270178 0.0283603 0.0287213 0.0297006 -0.0284061 0.0301825 -0.0289533 0.0296978 0.0299763 -0.0303523
internal_weight=286.746 148.59 138.156 30.9806 42.4417 106.148 21.8089 21.7872 20.6544 99.7775 107.175 31.9576 10.3479 26.1146 17.1526 16.5908 94.6171 16.3594 75.2176 10.7304 10.9491 12.1024 10.1657 78.2578 64.4872 73.5369 59.7212 65.7571 61.0569 17.6924
internal_count=1276 649 627 135 183 466 93 93 90 439 492 143 44 118 73 71 417 70 349 48 47 52 44 347 301 327 279 294 273 81
is_linear=0
shrinkage=0.02


Tree=24
num_leaves=31
num_cat=0
split_feature=14 38 38 15 14 33 54 38 43 55 39 49 23 65 47 32 54 30 14 23 41 35 71 46 65 20 54 33 68 56
split_gain=237.594 61.9847 34.5755 14.0278 18.7032 10.3307 14.6199 10.1185 9.48339 15.687 8.84567 7.14235 5.95339 4.68703 2.88908 2.41275 2.24861 1.91016 0.538846 0.519348 1.24094 0.514172 0.425465 0.153601 0.156249 0.0395944 0.0169956 0.0103393 0.00511117 0.00447129
threshold=0.26422938704490667 0.066941414028406157 0.60855436325073253 0.076414052397012724 0.68049398064613353 -0.57393622398376454 -0.10164290666580199 0.56800484657287609 0.44463492929935461 0.15559122711420062 -0.044719099998474114 0.35286943614482885 0.4185031801462174 0.093635458499193205 0.56437301635742199 0.68559905886650097 -0.18378110975027082 -0.79086148738861073 0.2257514297962189 0.2515282034873963 -0.061349935829639428 0.98410251736640941 -1.2539437413215635 0.2651370912790299 -0.76250162720680226 -0.24591031670570371 0.44363334774971014 -0.46215367317199701 0.10586820170283319 0.32509577274322515
decision_type=2 2 2 2 2 2 2 2 2 2 2 2 2 2 2 2 2 2 2 2 2 2 2 2 2 2 2 2 2 2
left_child=2 8 5 16 7 6 17 10 9 12 -5 -4 -2 -6 18 26 -3 28 19 -7 -21 22 -18 25 -25 -24 -15 29 -1 -26
right_child=1 3 11 4 13 14 -8 -9 -10 -11 -12 -13 -14 15 -16 -17 21 -19 -20 20 -22 -23 23 24 27 -27 -28 -29 -30 -31
leaf_value=-0.028758803948121171 -0.026315287713689156 0.015481217806027276 0.020707940504575053 0.0065963981488847117 0.007128167172260314 -0.028512033554442009 0.0073582085547333458 0.017279833864026282 -0.031858917115873124 0.023302969179018845 -0.029199262693939545 -0.0093021140880205199 -0.00048428829323699744 0.03126190482443076 -0.015255006005561572 0.015095883974096036 0.023657222758652476 -0.013551559543814458 -0.020759436925972843 -0.028699177824211119 -0.015392410295892438 0.022612594315681109 0.033573467972810855 0.026148862759149811 0.030267673201334847 0.031070280699619292 0.029949874086860364 0.030527508348418757 -0.029667079968624041 0.029665676782226865
leaf_weight=5.7113175094127637 8.2944667190313393 5.2031220197677603 8.9711788296699506 4.9379549771547326 5.5972600579261771 67.59295816719532 9.6999919265508634 6.9630417078733435 6.419418290257453 5.9672686755657187 6.2648227065801629 4.9075995385646811 6.2644334435462943 5.2486985176801744 8.5705796778202039 5.2203583568334571 4.5671662390232077 4.556916996836665 4.5661656260490409 8.0213090777397138 4.3092645853757849 4.5696340501308432 4.7108954042196274 4.915165126323692 5.8190723955631176 5.4537692219018918 15.950673401355742 8.5176042467355852 4.3778969198465347 32.491399601101875
leaf_count=27 37 22 37 21 24 323 39 30 28 25 26 20 26 23 37 22 20 20 21 38 20 20 20 22 26 24 72 38 20 148
internal_value=-6.5483e-06 0.0168983 -0.019756 0.022768 0.0145563 -0.0232849 -0.011686 -0.0016534 -0.0106424 -0.00400708 -0.0134213 0.0100962 -0.0152007 0.0237533 -0.0263193 0.0272755 0.0281726 -0.0242988 -0.0274417 -0.0278234 -0.0240488 0.029102 0.0295481 0.0299827 0.0295412 0.0322304 0.0302747 0.0298972 -0.0291529 0.0297571
internal_weight=284.661 153.376 131.285 126.431 50.1828 117.406 24.3461 18.1658 26.9456 20.5262 11.2028 13.8788 14.5589 32.017 93.0603 26.4197 76.2478 14.6461 84.4897 79.9235 12.3306 71.0447 66.4751 61.9079 51.7432 10.1647 21.1994 46.8281 10.0892 38.3105
internal_count=1276 674 602 558 218 545 106 77 116 88 47 57 63 141 439 117 340 67 402 381 58 318 298 278 234 44 95 212 47 174
is_linear=0
shrinkage=0.02


Tree=25
num_leaves=31
num_cat=0
split_feature=14 4 33 54 29 14 13 25 14 61 58 37 54 56 55 32 14 18 4 43 4 39 23 21 19 14 56 37 54 29
split_gain=230.034 60.4713 33.2633 26.8227 23.4198 12.5697 9.87695 9.65404 9.64788 6.09152 4.55639 4.24978 4.17311 6.83543 2.8901 4.40622 4.70027 2.51975 2.38948 1.90387 1.71146 1.14836 0.927586 3.07379 0.572557 0.500425 0.114874 0.0670837 0.0326316 0.0248511
threshold=0.26422938704490667 -0.25522050261497492 -0.57393622398376454 -0.027744438499212262 0.49207173287868505 0.76500973105430614 0.30523636937141424 -0.25618177652359003 -0.64115324616432179 -0.45422416925430292 0.0085813780315220373 -0.34372575581073755 0.45069549977779394 0.57976225018501293 0.60743454098701488 -0.22747951745986936 0.65913459658622753 0.21966638416051867 0.55472731590271007 -0.21955208480358121 -0.65335237979888905 0.28058749437332159 0.36929668486118322 0.74409028887748729 -0.40594901144504542 -0.46834130585193628 0.61730334162712108 0.18383046239614489 -0.32405340671539301 -0.45595313608646387
decision_type=2 2 2 2 2 2 2 2 2 2 2 2 2 2 2 2 2 2 2 2 2 2 2 2 2 2 2 2 2 2
left_child=2 7 3 9 11 6 -6 -2 -5 27 -11 -3 22 -14 15 21 -17 -8 -7 -10 28 24 26 -24 -13 -15 29 -1 -9 -4
right_child=1 4 12 8 5 18 17 20 19 10 -12 14 13 25 -16 16 -18 -19 -20 -21 -22 -23 23 -25 -26 -27 -28 -29 -30 -31
leaf_value=-0.02874485102607325 0.0043299907548546178 0.0080717195480322149 -0.029971453370020718 -0.0051853758834784257 0.014203065598919771 0.010863658106572187 -0.0087680903645297927 -0.028829622180152743 0.035536457094674942 0.0063458970531044961 -0.021960454096380762 0.022318602335411778 0.0028583782250450429 -0.020620232846995264 0.029567575712066078 -0.0010445779345987917 0.024535608022175897 -0.029080564374998986 0.029841668490457534 0.018419431593971334 -0.015255208058470297 0.017468476210260181 -0.0090497124006865964 -0.029577333591258862 0.029922476163477235 -0.02978351972510258 -0.025097075007308116 -0.032132580967039977 -0.031244764054230413 -0.028405488701648208
leaf_weight=4.8560841083526594 6.7468882501125362 5.1215538978576651 4.3495490998029629 5.4545759111642829 5.6407175660133388 4.8146855384111387 4.8335862010717374 4.4439175724983215 5.62406301498413 4.6830746531486529 4.4229177832603455 4.9311045706272152 5.1231977492570868 4.2832332700490943 59.448200270533562 5.5628952980041486 5.9426823705434799 4.9388226568698883 5.9127381294965744 4.8326365053653708 4.8114073276519749 4.5142077058553687 4.4706621319055548 8.4003650546073896 20.134958773851398 5.3762203454971305 4.1989381462335578 4.5090985000133514 4.5075554549694061 59.577569305896766
leaf_count=23 28 21 20 22 23 20 20 21 23 20 20 22 23 20 272 23 26 21 25 20 21 20 20 39 91 25 20 20 20 287
internal_value=-6.69922e-06 0.0166783 -0.0195302 -0.00265536 0.0216496 0.00470003 -0.00687009 -0.0152678 0.0163777 -0.0190506 -0.00740292 0.0258432 -0.0255878 -0.0158158 0.0267485 0.0226695 0.0121677 -0.0190337 0.021324 0.0276257 -0.0248751 0.0267543 -0.0273713 -0.0224472 0.0284266 -0.0257203 -0.0283016 -0.030376 -0.0300458 -0.028512
internal_weight=282.468 152.306 130.162 34.3825 131.796 26.1406 15.4131 20.5098 15.9113 18.4712 9.10599 105.656 95.7797 14.7827 100.534 41.0858 11.5056 9.77241 10.7274 10.4567 13.7629 29.5803 80.9971 12.871 25.0661 9.65945 68.1261 9.36518 8.95147 63.9271
internal_count=1276 674 602 148 584 109 64 90 65 83 40 475 454 68 454 182 49 41 45 43 62 133 386 59 113 45 327 43 41 307
is_linear=0
shrinkage=0.02


Tree=26
num_leaves=31
num_cat=0
split_feature=14 4 33 55 33 37 25 34 8 36 11 35 24 14 29 25 4 41 57 53 14 2 62 9 41 42 29 28 47 51
split_gain=222.781 58.5496 32.45 23.96 22.9702 12.6715 9.37885 9.12038 8.75704 6.55988 11.1296 5.4345 3.62068 4.73734 3.07517 5.60301 1.6895 1.53161 1.42783 1.03349 1.3111 3.45021 1.03021 0.28321 0.624252 0.281697 0.120265 0.0539588 0.04824 0.0349794
threshold=0.26422938704490667 -0.25522050261497492 -0.57393622398376454 0.14270944893360141 1.1935804486274721 -0.7184917926788329 -0.25618177652359003 0.52671000361442577 -0.098155826330184923 0.82624569535255443 -0.33934508264064783 0.030859447084367279 0.70563277602195751 0.77307152748107921 -0.0062548411078751079 0.18419630825519565 -0.65335237979888905 0.42845977842807775 -0.79604706168174733 -0.44778858125209803 0.53419262170791637 0.64348489046096813 -1.5233248472213743 -1.4638662934303281 0.060184551402926452 -0.39145645499229426 0.27087217569351202 0.21485933661460879 0.51103982329368602 0.39912658929824835
decision_type=2 2 2 2 2 2 2 2 2 2 2 2 2 2 2 2 2 2 2 2 2 2 2 2 2 2 2 2 2 2
left_child=2 6 3 8 5 -3 -2 -5 25 12 -11 -10 18 -14 15 17 -8 27 -7 -20 21 29 -16 24 -24 -1 -22 -4 -25 -21
right_child=1 4 14 7 -6 9 16 -9 11 10 -12 -13 13 -15 22 -17 -18 -19 19 20 26 -23 23 28 -26 -27 -28 -29 -30 -31
leaf_value=-0.025463558150604759 0.0042415755006464158 -0.0047339024053062832 -0.028182567862476426 0.030130300228492213 -0.01292690414106106 0.016940608609836184 -0.029753224559693991 -0.0031195999950419497 0.012634455017433535 0.031623562567114655 -0.011673151689490567 -0.017533508905515978 0.00031980066861925352 0.028104684580392131 -0.019189607036000051 -0.00020911049000947528 -0.015011783731376144 -0.015400221685740179 0.018749997195144846 0.031698014159951805 0.029449422085928125 0.011721246766495479 -0.028167272198955255 -0.028194444339217931 -0.018673608731110822 -0.031989575951637143 0.032767202118524304 -0.031355771413011657 -0.030368695889565495 0.029379873451797916
leaf_weight=4.8744190782308561 6.7497467547655132 6.0742142349481574 4.1172551214694995 8.6812949329614622 7.364702343940734 4.9053389132022849 8.8596195578575134 5.3232486844062796 4.7173717170953751 4.5401565283536911 4.9793370366096479 4.8382128775119781 4.734082490205763 5.0976982116699219 6.07882997393608 5.1207142174243918 4.7918365895748112 4.4712139815092078 4.58214446902275 5.0056559294462222 67.114287778735161 6.271578222513198 8.4298916459083539 53.575906455516815 4.1266889572143546 5.7865411937236804 4.6746330112218848 4.4714012444019318 4.4183801561594001 5.4261203408241272
leaf_count=23 28 25 20 36 31 21 41 22 20 20 21 21 20 22 29 23 21 20 20 22 309 28 41 261 20 26 20 20 20 25
internal_value=-6.80937e-06 0.016469 -0.0193096 -0.0026152 0.0213852 0.0234329 -0.0150436 0.0174917 -0.0165438 0.0248911 0.00897646 -0.00264028 0.0262963 0.014726 -0.0253353 -0.0179404 -0.0245788 -0.0248928 0.0274574 0.0280116 0.0284912 0.0234443 -0.0270898 -0.0277705 -0.0250472 -0.0290057 0.0296655 -0.0298346 -0.0283601 0.0304922
internal_weight=280.203 151.171 129.031 34.2211 130.77 123.405 20.4012 14.0045 20.2165 117.331 9.51949 9.55558 107.812 9.83178 94.8103 18.1806 13.6515 13.0599 97.9798 93.0744 88.4923 16.7034 76.6297 70.5509 12.5566 10.661 71.7889 8.58866 57.9943 10.4318
internal_count=1276 674 602 148 584 553 90 58 90 528 41 41 487 42 454 83 62 60 445 424 404 75 371 342 61 49 329 40 281 47
is_linear=0
shrinkage=0.02


Tree=27
num_leaves=31
num_cat=0
split_feature=14 38 38 4 43 55 19 47 54 43 11 43 4 5 54 3 29 28 22 1 60 50 44 17 14 29 54 32 29 47
split_gain=215.755 57.3378 32.5267 20.1536 8.98092 14.7698 8.67843 8.37312 14.4553 12.1976 8.50572 11.0066 7.54526 6.76274 2.93179 4.22948 8.43432 1.62509 2.72054 1.29493 2.59939 0.682445 1.78473 0.574681 0.116339 0.0795036 0.0739449 0.0719983 0.0703559 0.0389109
threshold=0.26422938704490667 0.066941414028406157 0.60855436325073253 -0.3062725812196731 0.44463492929935461 0.15559122711420062 0.85574147105216991 -0.12520125135779378 0.44363334774971014 0.23940172791481021 -0.083319596946239458 -0.30342485010623926 -1.0000000180025095e-35 0.60102185606956493 0.6351785957813264 0.16349104046821597 -0.0045007738517597309 0.63194498419761669 0.70197981595993053 0.42531415820121771 -0.28808382153511042 -0.36713489890098566 0.31150053441524511 -1.1921910047531126 0.53708612918853771 0.073912873864173903 -0.045295204967260354 -0.7865985333919524 0.27976822853088384 0.5812048912048341
decision_type=2 2 2 2 2 2 2 2 2 2 2 2 2 2 2 2 2 2 2 2 2 2 2 2 2 2 2 2 2 2
left_child=2 4 7 -3 5 12 14 23 10 -10 11 -9 -2 -4 15 17 -17 25 -19 20 -12 22 -16 -1 -23 -5 29 -25 -26 -21
right_child=1 3 13 6 -6 -7 -8 8 9 -11 19 -13 -14 -15 21 16 -18 18 -20 26 -22 24 -24 27 28 -27 -28 -29 -30 -31
leaf_value=-0.020419986228866073 -0.027701796249739716 -0.0092117147857312849 0.021630105053500034 0.029578852096326234 -0.031246534722272654 0.022698391598546547 0.0044924437980841791 0.016082178162663507 0.028331192278069742 -0.017764821033875375 -0.0095540697915449634 -0.026368999803370468 0.0015158210649777668 -0.0068358111453182754 0.030028413852338731 0.024298217673204139 -0.0081200462978341468 0.010157080079579769 0.0308017303993624 -0.027984776551310653 -0.028725385825956511 0.026575153194508396 0.013750918477985137 -0.030412988297356582 0.029034182984325536 0.032783338359949329 -0.031463348577178606 -0.027935462255792579 0.031638885425835886 -0.030075916839339217
leaf_weight=4.1143944710493079 8.0477199256420153 7.7574510872364035 8.1177544891834241 9.1728211939334887 6.3015733510255805 5.9109547436237326 8.3856972306966764 4.8913703709840775 4.7443070411682111 4.4499118030071259 4.7761539220809937 4.880874961614607 6.3055340647697475 5.6701466590166083 6.7654423862695676 8.6722033023834211 5.0969118773937216 5.2760452479124051 4.9476523548364639 13.035155132412909 6.9390131831169111 7.3476714342832556 4.477614238858223 5.1583068668842307 46.357479676604271 4.6754346787929526 4.3468254357576432 51.886794239282608 4.5556924492120734 4.8962382525205603
leaf_count=20 37 33 34 42 28 25 36 21 20 20 22 23 26 23 31 39 21 23 22 64 33 34 20 24 217 20 20 256 20 22
internal_value=-6.83351e-06 0.0162615 -0.0190919 0.0219957 -0.0103935 -0.00390882 0.0240876 -0.0225976 -0.0167759 0.00602117 -0.021565 -0.00512061 -0.0148662 0.00992376 0.0256183 0.0211388 0.012298 0.0261958 0.0201478 -0.0262924 -0.0209094 0.0280571 0.0235458 -0.0276388 0.0289277 0.0306607 -0.0291231 -0.0281595 0.0292673 -0.0285558
